{"learner":{"attributes":{"scikit_learn":"{\"_estimator_type\": \"classifier\"}"},"feature_names":[],"feature_types":[],"gradient_booster":{"model":{"gbtree_model_param":{"num_parallel_tree":"1","num_trees":"300"},"iteration_indptr":[0,3,6,9,12,15,18,21,24,27,30,33,36,39,42,45,48,51,54,57,60,63,66,69,72,75,78,81,84,87,90,93,96,99,102,105,108,111,114,117,120,123,126,129,132,135,138,141,144,147,150,153,156,159,162,165,168,171,174,177,180,183,186,189,192,195,198,201,204,207,210,213,216,219,222,225,228,231,234,237,240,243,246,249,252,255,258,261,264,267,270,273,276,279,282,285,288,291,294,297,300],"tree_info":[0,1,2,0,1,2,0,1,2,0,1,2,0,1,2,0,1,2,0,1,2,0,1,2,0,1,2,0,1,2,0,1,2,0,1,2,0,1,2,0,1,2,0,1,2,0,1,2,0,1,2,0,1,2,0,1,2,0,1,2,0,1,2,0,1,2,0,1,2,0,1,2,0,1,2,0,1,2,0,1,2,0,1,2,0,1,2,0,1,2,0,1,2,0,1,2,0,1,2,0,1,2,0,1,2,0,1,2,0,1,2,0,1,2,0,1,2,0,1,2,0,1,2,0,1,2,0,1,2,0,1,2,0,1,2,0,1,2,0,1,2,0,1,2,0,1,2,0,1,2,0,1,2,0,1,2,0,1,2,0,1,2,0,1,2,0,1,2,0,1,2,0,1,2,0,1,2,0,1,2,0,1,2,0,1,2,0,1,2,0,1,2,0,1,2,0,1,2,0,1,2,0,1,2,0,1,2,0,1,2,0,1,2,0,1,2,0,1,2,0,1,2,0,1,2,0,1,2,0,1,2,0,1,2,0,1,2,0,1,2,0,1,2,0,1,2,0,1,2,0,1,2,0,1,2,0,1,2,0,1,2,0,1,2,0,1,2,0,1,2,0,1,2,0,1,2,0,1,2,0,1,2,0,1,2,0,1,2,0,1,2,0,1,2,0,1,2,0,1,2],"trees":[{"base_weights":[4.0992025E-2,2.3627377E-1,-1.6691612E-1,5.1354533E-1,1.0242975E-1,-4.7020495E-2,-3.2550305E-1,3.2705128E-1,6.655558E-1,-2.5932673E-1,1.9734009E-1,-2.466844E-1,2.6782755E-2,-5.111181E-1,-2.3109849E-1,4.9036956E-1,1.2101492E-1,7.7908933E-1,3.903614E-1,-3.5951778E-1,2.267135E-1,1.6396196E-1,7.845468E-1,-7.514455E-2,-3.9024395E-1,2.1373165E-1,-8.716966E-2,-5.2896005E-1,2.7272725E-1,-1.3350331E-2,-3.0284515E-1,2.9877546E-1,8.1702125E-1,-4.2716365E-2,3.554502E-1,8.984841E-1,4.441656E-1,-1.5189879E-1,5.132743E-1,-3.8042274E-1,8.5714287E-1,5.152354E-1,-2.6267287E-1,2.692663E-1,-2.0059995E-2,9.430255E-1,2.774566E-1,-1.7063802E-1,3.9622638E-1,-4.121884E-1,4.897959E-1,3.5559484E-1,-4.8820224E-2,-1.6807689E-1,1.7568566E-1,-5.4122216E-1,5.121951E-1,8.5714287E-1,-1.7027028E-1,-1.513426E-1,4.6742207E-1,-4.7018746E-1,-2.0347482E-1,2.1642229E-1,4.0313542E-2,8.5263155E-2,3.4615386E-1,-2.7457643E-2,3.4054056E-1,4.4097986E-2,2.4715026E-1,4.1322958E-1,2.4914463E-1,1.6192468E-1,-1.11235976E-1,2.4E-1,-1.0746271E-1,2.1176471E-1,5.8942053E-2,-1.3439795E-1,9.254486E-3,-7.663455E-9,3.4054056E-1,-1.6363639E-1,2.334471E-1,-1.0975611E-1,2.5714284E-1,-8.732675E-2,9.268637E-2,-2.7725706E-2,1.2626427E-1,5.5384606E-2,3.0993378E-1,-1.1612905E-1,2.8314605E-1,1.0551724E-1,-7.0300445E-2,3.021898E-1,-7.2262794E-2,-6.842107E-2,-1.4458111E-1,3.2727274E-1,-1.4400001E-1,7.4789435E-2,2.2085889E-1,-4.0142745E-2,2.3076923E-1,-5.9354857E-2,1.4162436E-1,1.7869249E-1,-2.857156E-3,-1.7091425E-1,-6.691451E-2,-1.2857145E-1,3.1034482E-1,-7.663455E-9,3.4054056E-1,-7.9783805E-2,5.7507977E-2,-4.6153862E-2,2.2408164E-1,-8.51852E-2,-1.7896256E-1,-6.517348E-2,3.2727274E-1],"categories":[],"categories_nodes":[],"categories_segments":[],"categories_sizes":[],"default_left":[0,0,0,0,0,0,0,0,0,0,0,0,0,0,0,0,0,0,0,0,0,0,0,0,0,0,0,0,0,0,0,0,0,0,0,0,0,0,0,0,0,0,0,0,0,0,0,0,0,0,0,0,0,0,0,0,0,0,0,0,0,0,0,0,0,0,0,0,0,0,0,0,0,0,0,0,0,0,0,0,0,0,0,0,0,0,0,0,0,0,0,0,0,0,0,0,0,0,0,0,0,0,0,0,0,0,0,0,0,0,0,0,0,0,0,0,0,0,0,0,0,0,0,0,0],"id":0,"left_children":[1,3,5,7,9,11,13,15,17,19,21,23,25,27,29,31,33,35,37,39,41,43,45,47,49,51,53,55,57,59,61,63,65,67,69,71,73,75,77,79,81,83,85,87,89,91,93,95,97,99,101,103,105,107,109,111,113,115,-1,117,119,121,123,-1,-1,-1,-1,-1,-1,-1,-1,-1,-1,-1,-1,-1,-1,-1,-1,-1,-1,-1,-1,-1,-1,-1,-1,-1,-1,-1,-1,-1,-1,-1,-1,-1,-1,-1,-1,-1,-1,-1,-1,-1,-1,-1,-1,-1,-1,-1,-1,-1,-1,-1,-1,-1,-1,-1,-1,-1,-1,-1,-1,-1,-1],"loss_changes":[2.0539307E2,9.675386E1,4.6575043E1,2.3850662E1,6.049884E1,2.0586033E1,1.8364647E1,1.2835896E1,1.4279785E1,1.7920797E1,2.721753E1,9.2547455E0,2.175981E1,5.1059494E0,1.0947475E1,1.3114216E1,6.5703845E0,1.2774796E1,9.297989E0,8.060913E0,9.062234E0,2.5612766E1,5.747719E0,7.854833E0,4.1608486E0,1.4423454E1,1.352928E1,4.710106E0,4.6879606E0,1.1666E1,8.671425E0,9.359984E0,1.3730068E1,5.935922E0,6.7460985E0,6.734253E0,7.098242E0,5.4580765E0,6.7563877E0,8.34148E0,1.2972972E0,1.1610564E1,3.0994718E0,1.8783482E1,1.5414067E1,3.6733093E0,8.877607E0,4.892187E0,1.1705826E1,2.4656143E0,3.6975136E0,9.980089E0,9.5969925E0,9.354047E0,1.1664007E1,2.9884033E0,2.6817253E0,1.2972972E0,0E0,5.419399E0,6.9260426E0,4.435009E0,6.1643925E0,0E0,0E0,0E0,0E0,0E0,0E0,0E0,0E0,0E0,0E0,0E0,0E0,0E0,0E0,0E0,0E0,0E0,0E0,0E0,0E0,0E0,0E0,0E0,0E0,0E0,0E0,0E0,0E0,0E0,0E0,0E0,0E0,0E0,0E0,0E0,0E0,0E0,0E0,0E0,0E0,0E0,0E0,0E0,0E0,0E0,0E0,0E0,0E0,0E0,0E0,0E0,0E0,0E0,0E0,0E0,0E0,0E0,0E0,0E0,0E0,0E0,0E0],"parents":[2147483647,0,0,1,1,2,2,3,3,4,4,5,5,6,6,7,7,8,8,9,9,10,10,11,11,12,12,13,13,14,14,15,15,16,16,17,17,18,18,19,19,20,20,21,21,22,22,23,23,24,24,25,25,26,26,27,27,28,28,29,29,30,30,31,31,32,32,33,33,34,34,35,35,36,36,37,37,38,38,39,39,40,40,41,41,42,42,43,43,44,44,45,45,46,46,47,47,48,48,49,49,50,50,51,51,52,52,53,53,54,54,55,55,56,56,57,57,59,59,60,60,61,61,62,62],"right_children":[2,4,6,8,10,12,14,16,18,20,22,24,26,28,30,32,34,36,38,40,42,44,46,48,50,52,54,56,58,60,62,64,66,68,70,72,74,76,78,80,82,84,86,88,90,92,94,96,98,100,102,104,106,108,110,112,114,116,-1,118,120,122,124,-1,-1,-1,-1,-1,-1,-1,-1,-1,-1,-1,-1,-1,-1,-1,-1,-1,-1,-1,-1,-1,-1,-1,-1,-1,-1,-1,-1,-1,-1,-1,-1,-1,-1,-1,-1,-1,-1,-1,-1,-1,-1,-1,-1,-1,-1,-1,-1,-1,-1,-1,-1,-1,-1,-1,-1,-1,-1,-1,-1,-1,-1],"split_conditions":[-1.6029854E-1,-6.27473E-1,1.9444922E-1,-2.918159E-1,-4.7763953E-1,-7.9541373E-1,-3.694583E-1,-1.5370092E-1,-4.0560207E-1,1.3263653E-2,2.129449E0,-6.27473E-1,-6.0900927E-1,9.9743927E-1,-6.253693E-1,3.985904E-1,-1.7506331E-1,-4.4421282E-1,-8.543136E-1,2.467331E0,-8.493914E-1,3.7365365E-1,5.0706166E-1,7.764794E-1,1.2252821E0,-2.039734E-1,6.722904E-1,1.9696379E0,2.6698777E-1,8.9975387E-1,-6.2657475E-1,-2.0760965E-1,-2.0564266E-1,3.0728776E0,7.7104855E-1,-5.2879655E-1,9.6632165E-1,-8.1275946E-1,5.2964556E-1,3.0361465E-1,-1.331225E-1,-1.2100877E0,7.5556237E-1,-1.7961773E0,4.7828582E-1,-9.2718124E-1,-2.2883491E-1,-8.6619747E-1,8.754862E-1,-1.1913557E0,1.8421091E0,7.579104E-1,2.3568385E0,2.1834471E0,-4.4976658E-1,2.3384087E0,-6.7855954E-1,2.7649708E-2,-1.7027028E-1,-2.1657898E-1,-8.6844367E-1,2.2488013E-1,2.68124E0,2.1642229E-1,4.0313542E-2,8.5263155E-2,3.4615386E-1,-2.7457643E-2,3.4054056E-1,4.4097986E-2,2.4715026E-1,4.1322958E-1,2.4914463E-1,1.6192468E-1,-1.11235976E-1,2.4E-1,-1.0746271E-1,2.1176471E-1,5.8942053E-2,-1.3439795E-1,9.254486E-3,-7.663455E-9,3.4054056E-1,-1.6363639E-1,2.334471E-1,-1.0975611E-1,2.5714284E-1,-8.732675E-2,9.268637E-2,-2.7725706E-2,1.2626427E-1,5.5384606E-2,3.0993378E-1,-1.1612905E-1,2.8314605E-1,1.0551724E-1,-7.0300445E-2,3.021898E-1,-7.2262794E-2,-6.842107E-2,-1.4458111E-1,3.2727274E-1,-1.4400001E-1,7.4789435E-2,2.2085889E-1,-4.0142745E-2,2.3076923E-1,-5.9354857E-2,1.4162436E-1,1.7869249E-1,-2.857156E-3,-1.7091425E-1,-6.691451E-2,-1.2857145E-1,3.1034482E-1,-7.663455E-9,3.4054056E-1,-7.9783805E-2,5.7507977E-2,-4.6153862E-2,2.2408164E-1,-8.51852E-2,-1.7896256E-1,-6.517348E-2,3.2727274E-1],"split_indices":[13,7,6,24,10,16,10,22,21,11,47,7,22,4,22,10,14,2,5,38,10,15,11,5,28,2,47,26,49,49,43,33,43,40,42,39,5,3,31,18,2,20,35,5,35,18,40,24,23,9,28,49,23,25,43,49,11,8,0,48,36,21,37,0,0,0,0,0,0,0,0,0,0,0,0,0,0,0,0,0,0,0,0,0,0,0,0,0,0,0,0,0,0,0,0,0,0,0,0,0,0,0,0,0,0,0,0,0,0,0,0,0,0,0,0,0,0,0,0,0,0,0,0,0,0],"split_type":[0,0,0,0,0,0,0,0,0,0,0,0,0,0,0,0,0,0,0,0,0,0,0,0,0,0,0,0,0,0,0,0,0,0,0,0,0,0,0,0,0,0,0,0,0,0,0,0,0,0,0,0,0,0,0,0,0,0,0,0,0,0,0,0,0,0,0,0,0,0,0,0,0,0,0,0,0,0,0,0,0,0,0,0,0,0,0,0,0,0,0,0,0,0,0,0,0,0,0,0,0,0,0,0,0,0,0,0,0,0,0,0,0,0,0,0,0,0,0,0,0,0,0,0,0],"sum_hessian":[5.0568887E3,2.6075554E3,2.4493333E3,8.4799994E2,1.7595554E3,1.3955554E3,1.0537777E3,3.822222E2,4.6577774E2,3.653333E2,1.3942222E3,3.7599997E2,1.0195555E3,3.5377777E2,6.9999994E2,2.1244443E2,1.6977777E2,3.2844443E2,1.3733333E2,3.0311108E2,6.2222218E1,1.3204443E3,7.377777E1,1.7199998E2,2.0399998E2,3.8577774E2,6.337777E2,3.462222E2,7.5555553E0,1.7377777E2,5.2622217E2,1.351111E2,7.733333E1,1.00444435E2,6.933333E1,2.4088887E2,8.755555E1,2.5333332E1,1.1199999E2,2.9866666E2,4.444444E0,3.9111107E1,2.311111E1,8.395555E2,4.8088885E2,5.5555553E1,1.8222221E1,1.4355554E2,2.8444443E1,1.9955554E2,4.444444E0,2.5022221E2,1.3555554E2,4.8488885E2,1.4888889E2,3.4266666E2,3.5555553E0,4.444444E0,3.111111E0,1.3555554E2,3.822222E1,1.9466666E2,3.3155554E2,3.6888885E1,9.822221E1,3.0666664E1,4.6666664E1,9.733333E1,3.111111E0,4.8888885E1,2.0444443E1,2.7555553E1,2.1333331E2,7.8666664E1,8.888888E0,3.9999998E0,2.1333332E1,6.8888885E1,4.3111107E1,2.5644443E2,4.222222E1,1.3333333E0,3.111111E0,7.5555553E0,3.1555553E1,2.1777777E1,1.3333333E0,5.5111107E1,7.844444E2,4.1377774E2,6.711111E1,6.222222E0,4.9333332E1,9.333333E0,8.888888E0,1.5111111E1,1.2844444E2,1.4222221E1,1.4222221E1,5.5999996E1,1.4355554E2,2.6666665E0,1.7777777E0,1.9688887E2,5.333333E1,1.2355555E2,1.1999999E1,4.6399997E2,2.0888887E1,4.4888885E1,1.0399999E2,3.1377777E2,2.8888887E1,1.3333333E0,2.222222E0,1.3333333E0,3.111111E0,1.0177777E2,3.3777775E1,1.1999999E1,2.6222221E1,7.999999E1,1.1466666E2,3.2888885E2,2.6666665E0],"tree_param":{"num_deleted":"0","num_feature":"50","num_nodes":"125","size_leaf_vector":"1"}},{"base_weights":[4.0992025E-2,2.6103726E-1,-1.4735259E-1,-8.311745E-2,3.6887857E-1,1.0597179E-2,-3.0269226E-1,-1.9459465E-1,2.9710776E-1,2.9101902E-1,7.1399385E-1,-1.1412461E-1,2.8059232E-1,5.278396E-1,-3.337246E-1,5.776397E-1,-2.2743107E-1,5.272364E-3,5.7831323E-1,3.936504E-1,4.3738566E-2,9.407598E-1,4.5656854E-1,-1.5968694E-1,4.032496E-1,4.2488825E-1,-1.643836E-1,8.844985E-1,-4.186047E-1,-3.4696653E-1,7.058823E-1,2.970293E-2,3.9130437E-1,-2.7769488E-1,2.0610683E-1,3.122449E-1,-9.073728E-2,9.061583E-1,1.0843369E-1,4.6486637E-1,1.5935332E-1,2.5371203E-1,-9.778362E-2,9.7041416E-1,-3.658537E-1,9.579832E-1,2.8133968E-1,1.9599575E-1,-2.0966548E-1,1.6901405E-1,1E0,5.723951E-1,-4.707565E-2,1.2883432E-1,-4.66951E-1,1.0365448E0,-1.7027028E-1,1.7999999E-1,-6.1061954E-1,-4.0694317E-1,-1.1824466E-1,1.2E0,-3.1578952E-1,2.4E-1,-1.523077E-1,-9.6521765E-2,8.181818E-2,1.3106796E-1,-1.7419356E-1,8.0178045E-3,-2.0224722E-1,6.605504E-2,3.547718E-1,-1.7191014E-1,1.3846153E-1,1.06402926E-1,1.923588E-1,-3.1904384E-2,1.4797086E-1,5.062088E-2,2.5714287E-1,-4.5395665E-2,2.0536913E-1,-8.181819E-2,2.975952E-1,-7.663455E-9,-1.5517244E-1,2.9508187E-2,3.3049184E-1,1.2047243E-1,-1.1454547E-1,-6.20691E-3,2.587983E-1,-1.2395211E-1,-3.9881576E-2,2.244376E-3,2.3142856E-1,-6.0000014E-2,3.8823533E-1,2.4934037E-1,8.92562E-2,5.3642377E-2,-1.3307396E-1,-1.7080295E-1,1.1717451E-1,-1.694118E-1,1.1886792E-1,3.4105265E-1,-1.4400001E-1,-2.0495051E-1,-7.663455E-9,-1.7034703E-1,-1.006935E-1,-7.546744E-2,6.510638E-2,4.044944E-1,7.2E-2,-1.8E-1,1.2857142E-1],"categories":[],"categories_nodes":[],"categories_segments":[],"categories_sizes":[],"default_left":[0,0,0,0,0,0,0,0,0,0,0,0,0,0,0,0,0,0,0,0,0,0,0,0,0,0,0,0,0,0,0,0,0,0,0,0,0,0,0,0,0,0,0,0,0,0,0,0,0,0,0,0,0,0,0,0,0,0,0,0,0,0,0,0,0,0,0,0,0,0,0,0,0,0,0,0,0,0,0,0,0,0,0,0,0,0,0,0,0,0,0,0,0,0,0,0,0,0,0,0,0,0,0,0,0,0,0,0,0,0,0,0,0,0,0,0,0,0,0],"id":1,"left_children":[1,3,5,7,9,11,13,15,17,19,21,23,25,27,29,31,33,35,37,39,41,43,45,47,49,51,53,55,57,59,61,63,-1,65,67,-1,69,71,73,75,77,79,81,83,85,87,89,91,93,95,97,99,101,103,105,107,-1,-1,109,111,113,115,117,-1,-1,-1,-1,-1,-1,-1,-1,-1,-1,-1,-1,-1,-1,-1,-1,-1,-1,-1,-1,-1,-1,-1,-1,-1,-1,-1,-1,-1,-1,-1,-1,-1,-1,-1,-1,-1,-1,-1,-1,-1,-1,-1,-1,-1,-1,-1,-1,-1,-1,-1,-1,-1,-1,-1,-1],"loss_changes":[2.096593E2,8.661783E1,6.6885254E1,2.36859E1,4.752916E1,4.557835E1,3.5597298E1,1.1077324E1,1.0401059E1,3.681298E1,1.86203E1,2.1890163E1,2.7529552E1,1.7210638E1,1.8491531E1,7.0844345E0,9.095768E0,6.3801336E0,9.846376E0,1.7036148E1,1.2706896E1,7.0410004E0,1.3329617E1,1.5180748E1,1.0345559E1,2.2529E1,9.415E0,8.659094E0,3.1697881E0,1.791481E1,8.960991E0,5.051637E0,0E0,9.108822E0,8.182306E0,0E0,4.0460844E0,6.923847E0,6.9218893E0,1.5042221E1,2.1392881E1,8.68071E0,1.0811718E1,4.8021393E0,2.5231284E-1,4.790085E0,9.41143E0,1.5249997E1,1.1612614E1,5.367886E0,7.6705875E0,1.7272156E1,7.0553384E0,1.0151579E1,4.6208773E0,5.632763E0,0E0,0E0,5.5620813E-1,1.1704285E1,1.2276318E1,1.3375282E0,1.5969925E0,0E0,0E0,0E0,0E0,0E0,0E0,0E0,0E0,0E0,0E0,0E0,0E0,0E0,0E0,0E0,0E0,0E0,0E0,0E0,0E0,0E0,0E0,0E0,0E0,0E0,0E0,0E0,0E0,0E0,0E0,0E0,0E0,0E0,0E0,0E0,0E0,0E0,0E0,0E0,0E0,0E0,0E0,0E0,0E0,0E0,0E0,0E0,0E0,0E0,0E0,0E0,0E0,0E0,0E0,0E0,0E0],"parents":[2147483647,0,0,1,1,2,2,3,3,4,4,5,5,6,6,7,7,8,8,9,9,10,10,11,11,12,12,13,13,14,14,15,15,16,16,17,17,18,18,19,19,20,20,21,21,22,22,23,23,24,24,25,25,26,26,27,27,28,28,29,29,30,30,31,31,33,33,34,34,36,36,37,37,38,38,39,39,40,40,41,41,42,42,43,43,44,44,45,45,46,46,47,47,48,48,49,49,50,50,51,51,52,52,53,53,54,54,55,55,58,58,59,59,60,60,61,61,62,62],"right_children":[2,4,6,8,10,12,14,16,18,20,22,24,26,28,30,32,34,36,38,40,42,44,46,48,50,52,54,56,58,60,62,64,-1,66,68,-1,70,72,74,76,78,80,82,84,86,88,90,92,94,96,98,100,102,104,106,108,-1,-1,110,112,114,116,118,-1,-1,-1,-1,-1,-1,-1,-1,-1,-1,-1,-1,-1,-1,-1,-1,-1,-1,-1,-1,-1,-1,-1,-1,-1,-1,-1,-1,-1,-1,-1,-1,-1,-1,-1,-1,-1,-1,-1,-1,-1,-1,-1,-1,-1,-1,-1,-1,-1,-1,-1,-1,-1,-1,-1,-1],"split_conditions":[-2.528738E-1,-7.771325E-1,5.472888E-2,1.6423067E-1,1.1038735E0,2.2031137E-1,-1.3373015E0,-1.1527871E0,2.7281994E-1,-1.3153319E-1,-5.572737E-2,9.784095E-1,7.184523E-1,-9.319356E-2,2.155275E0,-4.609311E-1,1.0792356E0,-7.3234224E-1,2.8511676E-1,5.1830715E-1,-6.876188E-1,2.005398E0,-6.725864E-1,-1.0640156E0,-2.6536861E-2,-1.0497557E-1,-4.493316E-1,2.862215E-1,-7.111123E-1,5.014881E-2,-1.3024125E-1,-5.0880504E-1,3.9130437E-1,3.7333998E-1,1.0598559E0,3.122449E-1,-1.0197966E-1,3.1196105E-1,1.6462553E-1,4.7735384E-1,-1.5407225E-1,1.0535975E0,1.4133145E0,-1.2323399E0,5.3519887E-1,2.5578955E-1,9.54812E-3,4.1929814E-1,-7.69314E-1,6.636456E-1,-6.0467166E-1,-1.790717E-1,3.8414824E-1,-1.1239834E0,7.344975E-1,3.0361465E-1,-1.7027028E-1,1.7999999E-1,5.891188E-1,-1.0426329E0,2.4802177E-1,9.759294E-1,-2.7615657E-2,2.4E-1,-1.523077E-1,-9.6521765E-2,8.181818E-2,1.3106796E-1,-1.7419356E-1,8.0178045E-3,-2.0224722E-1,6.605504E-2,3.547718E-1,-1.7191014E-1,1.3846153E-1,1.06402926E-1,1.923588E-1,-3.1904384E-2,1.4797086E-1,5.062088E-2,2.5714287E-1,-4.5395665E-2,2.0536913E-1,-8.181819E-2,2.975952E-1,-7.663455E-9,-1.5517244E-1,2.9508187E-2,3.3049184E-1,1.2047243E-1,-1.1454547E-1,-6.20691E-3,2.587983E-1,-1.2395211E-1,-3.9881576E-2,2.244376E-3,2.3142856E-1,-6.0000014E-2,3.8823533E-1,2.4934037E-1,8.92562E-2,5.3642377E-2,-1.3307396E-1,-1.7080295E-1,1.1717451E-1,-1.694118E-1,1.1886792E-1,3.4105265E-1,-1.4400001E-1,-2.0495051E-1,-7.663455E-9,-1.7034703E-1,-1.006935E-1,-7.546744E-2,6.510638E-2,4.044944E-1,7.2E-2,-1.8E-1,1.2857142E-1],"split_indices":[13,1,11,22,0,7,14,30,15,32,10,48,13,31,3,25,12,10,41,18,21,38,29,14,32,44,42,35,39,48,46,18,0,49,37,0,25,12,10,15,45,3,20,42,1,8,49,3,8,3,35,18,4,34,34,18,0,0,0,9,20,23,0,0,0,0,0,0,0,0,0,0,0,0,0,0,0,0,0,0,0,0,0,0,0,0,0,0,0,0,0,0,0,0,0,0,0,0,0,0,0,0,0,0,0,0,0,0,0,0,0,0,0,0,0,0,0,0,0],"split_type":[0,0,0,0,0,0,0,0,0,0,0,0,0,0,0,0,0,0,0,0,0,0,0,0,0,0,0,0,0,0,0,0,0,0,0,0,0,0,0,0,0,0,0,0,0,0,0,0,0,0,0,0,0,0,0,0,0,0,0,0,0,0,0,0,0,0,0,0,0,0,0,0,0,0,0,0,0,0,0,0,0,0,0,0,0,0,0,0,0,0,0,0,0,0,0,0,0,0,0,0,0,0,0,0,0,0,0,0,0,0,0,0,0,0,0,0,0,0,0],"sum_hessian":[5.0568887E3,2.3319998E3,2.7248887E3,5.564444E2,1.7755554E3,1.3515554E3,1.3733333E3,4.3066663E2,1.2577777E2,1.4502222E3,3.253333E2,9.2488885E2,4.2666663E2,4.8888885E1,1.3244443E3,1.6888887E1,4.1377774E2,6.2222218E1,6.3555553E1,1.0244443E3,4.2577774E2,1.7155554E2,1.5377777E2,8.506666E2,7.422222E1,3.222222E2,1.04444435E2,3.5555553E1,1.3333332E1,1.3084443E3,1.5999999E1,1.0222221E1,6.666666E0,3.7111108E2,4.2666664E1,4.444444E0,5.7777775E1,3.6888885E1,2.6666664E1,7.8488885E2,2.3955554E2,1.711111E2,2.5466666E2,1.6799998E2,3.5555553E0,3.8666664E1,1.1511111E2,1.04444435E2,7.4622217E2,5.4222218E1,1.9999998E1,2.4533331E2,7.6888885E1,5.333333E1,5.1111107E1,3.2444443E1,3.111111E0,1.7777777E0,1.1555555E1,1.0359999E3,2.7244443E2,1.0666666E1,5.333333E0,3.9999998E0,6.222222E0,3.4399997E2,2.7111109E1,3.3333332E1,9.333333E0,4.8888885E1,8.888888E0,1.1111111E1,2.5777777E1,8.888888E0,1.7777777E1,4.8488885E2,2.9999997E2,1.3377777E2,1.0577777E2,1.511111E2,1.9999998E1,2.391111E2,1.5555554E1,2.6666665E0,1.6533333E2,1.3333333E0,2.222222E0,5.7777777E0,3.2888885E1,9.777777E1,1.7333332E1,7.955555E1,2.4888887E1,2.031111E2,5.431111E2,4.3555553E1,1.0666666E1,3.9999998E0,1.5999999E1,1.2533333E2,1.1999999E2,4.9333332E1,2.7555553E1,1.4222221E1,3.9111107E1,4.622222E1,4.8888884E0,3.0666664E1,1.7777777E0,1.0222221E1,1.3333333E0,3.1599997E2,7.1999994E2,1.951111E2,7.733333E1,8.888888E0,1.7777777E0,3.9999998E0,1.3333333E0],"tree_param":{"num_deleted":"0","num_feature":"50","num_nodes":"119","size_leaf_vector":"1"}},{"base_weights":[-8.1984185E-2,-4.621971E-1,3.2281318E-1,-6.2081736E-1,-2.3668766E-1,6.517666E-1,1.9734615E-1,3.2470584E-1,-6.504753E-1,-1.5340635E-1,-3.778149E-1,8.800931E-1,4.827978E-1,1.2717808E-2,3.194343E-1,5.0136983E-1,-1.956522E-1,-7.0701814E-1,-4.942754E-1,-1.2101467E-1,-5.5629146E-1,-9.047049E-2,-4.6236953E-1,-9.022561E-2,9.294741E-1,6.188938E-1,1.5729262E-1,-2.981367E-1,1.0407787E-1,5.2372324E-1,2.3685357E-1,7.6816607E-1,-4.588236E-1,-1.538462E-1,-7.1304625E-1,-5.196851E-1,7.453412E-2,-2.1532498E-1,-8.098772E-3,-6.0969985E-1,1.2413793E-1,-3.2571435E-1,3.0670923E-1,-5.9351796E-1,-3.1034487E-1,5.9999996E-1,-4.020619E-1,6.9720346E-1,1.0926316E0,1.0886426E0,5.3647053E-1,3.147092E-1,-6.1325973E-1,1.1920526E-1,-4.8358214E-1,3.8862997E-1,2.4838248E-2,8.8235295E-1,4.305115E-1,3.5473228E-1,7.7736065E-2,-1.7027028E-1,2.7931035E-1,-1.972603E-1,1.2857142E-1,1.1803278E-1,-1.9384618E-1,-1.6779664E-1,-2.1701142E-1,-1.5254251E-2,-1.631095E-1,2.7391306E-1,-1.5148516E-1,-1.9075159E-2,-1.1009711E-1,-8.89467E-2,3.3878878E-2,1.2857142E-1,-1.9453683E-1,3E-1,-1.3251536E-1,1.6431534E-1,-1.3333336E-1,-1.9059587E-1,1.855669E-2,-1.1240379E-1,6.8275854E-2,3.2727274E-1,-1.2857145E-1,1.2413793E-1,-1.9870132E-1,2.4285714E-1,-1.247525E-1,3.3565837E-1,-1.5517244E-1,5.5384606E-2,3.747541E-1,9.811694E-2,2.16E-1,1.3625498E-1,-1.488722E-1,-7.663455E-9,-1.9704145E-1,2.1724138E-1,-4.8265E-2,-1.7222872E-1,1.1464956E-2,1.8364249E-1,3.3128824E-2,-8.3968475E-2,2.9778337E-2,2.9712093E-1,-1.2857145E-1,1.5203619E-1,-7.4672505E-2,1.3177659E-1,2.3047244E-3,9.699247E-2,-2.7335258E-2],"categories":[],"categories_nodes":[],"categories_segments":[],"categories_sizes":[],"default_left":[0,0,0,0,0,0,0,0,0,0,0,0,0,0,0,0,0,0,0,0,0,0,0,0,0,0,0,0,0,0,0,0,0,0,0,0,0,0,0,0,0,0,0,0,0,0,0,0,0,0,0,0,0,0,0,0,0,0,0,0,0,0,0,0,0,0,0,0,0,0,0,0,0,0,0,0,0,0,0,0,0,0,0,0,0,0,0,0,0,0,0,0,0,0,0,0,0,0,0,0,0,0,0,0,0,0,0,0,0,0,0,0,0,0,0,0,0,0,0],"id":2,"left_children":[1,3,5,7,9,11,13,15,17,19,21,23,25,27,29,31,-1,33,35,37,39,41,43,45,47,49,51,53,55,57,59,61,63,65,67,69,71,73,75,77,-1,79,81,83,85,87,89,91,93,95,97,99,101,103,105,107,109,111,113,115,117,-1,-1,-1,-1,-1,-1,-1,-1,-1,-1,-1,-1,-1,-1,-1,-1,-1,-1,-1,-1,-1,-1,-1,-1,-1,-1,-1,-1,-1,-1,-1,-1,-1,-1,-1,-1,-1,-1,-1,-1,-1,-1,-1,-1,-1,-1,-1,-1,-1,-1,-1,-1,-1,-1,-1,-1,-1,-1],"loss_changes":[7.786047E2,9.316205E1,1.0100351E2,4.3137756E1,1.2621189E1,2.5659485E1,4.0011093E1,8.476566E0,1.2762085E1,8.808218E0,9.668591E0,1.3803604E1,1.7214088E1,2.0128538E1,1.790284E1,1.0741811E1,0E0,3.517212E0,5.7895355E0,6.7154913E0,2.8600922E0,8.706216E0,5.96772E0,3.4219673E0,9.567154E0,1.00720825E1,1.4330921E1,1.25181055E1,1.2339024E1,9.875259E0,1.4279514E1,7.5141582E0,1.9471855E0,3.7568722E0,1.3027344E0,4.2617645E0,9.153313E0,7.885766E0,1.0089538E1,2.2138805E0,0E0,9.412655E0,6.539407E0,4.5474014E0,5.1033525E0,2.992208E0,2.5627027E0,1.474144E1,7.264572E0,5.5907288E0,8.839134E0,1.1246979E1,5.370555E-1,8.644716E0,5.295944E0,7.345768E0,9.767203E0,9.253696E0,1.2845879E1,1.2841522E1,1.3542684E1,0E0,0E0,0E0,0E0,0E0,0E0,0E0,0E0,0E0,0E0,0E0,0E0,0E0,0E0,0E0,0E0,0E0,0E0,0E0,0E0,0E0,0E0,0E0,0E0,0E0,0E0,0E0,0E0,0E0,0E0,0E0,0E0,0E0,0E0,0E0,0E0,0E0,0E0,0E0,0E0,0E0,0E0,0E0,0E0,0E0,0E0,0E0,0E0,0E0,0E0,0E0,0E0,0E0,0E0,0E0,0E0,0E0,0E0],"parents":[2147483647,0,0,1,1,2,2,3,3,4,4,5,5,6,6,7,7,8,8,9,9,10,10,11,11,12,12,13,13,14,14,15,15,17,17,18,18,19,19,20,20,21,21,22,22,23,23,24,24,25,25,26,26,27,27,28,28,29,29,30,30,31,31,32,32,33,33,34,34,35,35,36,36,37,37,38,38,39,39,41,41,42,42,43,43,44,44,45,45,46,46,47,47,48,48,49,49,50,50,51,51,52,52,53,53,54,54,55,55,56,56,57,57,58,58,59,59,60,60],"right_children":[2,4,6,8,10,12,14,16,18,20,22,24,26,28,30,32,-1,34,36,38,40,42,44,46,48,50,52,54,56,58,60,62,64,66,68,70,72,74,76,78,-1,80,82,84,86,88,90,92,94,96,98,100,102,104,106,108,110,112,114,116,118,-1,-1,-1,-1,-1,-1,-1,-1,-1,-1,-1,-1,-1,-1,-1,-1,-1,-1,-1,-1,-1,-1,-1,-1,-1,-1,-1,-1,-1,-1,-1,-1,-1,-1,-1,-1,-1,-1,-1,-1,-1,-1,-1,-1,-1,-1,-1,-1,-1,-1,-1,-1,-1,-1,-1,-1,-1,-1],"split_conditions":[-1.6029854E-1,-5.4211104E-1,-7.9541373E-1,-1.6972584E0,-4.414548E-1,-3.694583E-1,1.5241289E-1,4.425308E-1,-6.680766E-1,1.5229216E0,-5.9547067E-1,-1.1221844E0,3.350765E-1,-7.276721E-1,-7.526236E-1,2.3733473E0,-1.956522E-1,-1.7049035E0,1.5177941E0,2.5891048E-1,2.3733473E0,-3.0372792E-1,-3.28717E-1,-7.090869E-1,-2.903923E-1,-9.511662E-1,6.927438E-1,-7.74932E-1,-2.4050321E-2,-1.0309743E0,-1.8586473E-1,5.342552E-1,-7.0766225E-2,-7.5537795E-1,-7.5873E-2,-1.7466352E0,-7.5873E-2,-2.5187498E-2,-4.1464907E-1,-1.548342E0,1.2413793E-1,-1.5223534E0,8.469884E-1,1.2064911E0,1.2455496E0,2.9977804E-1,-2.0282838E0,1.02689E0,4.496391E0,-1.0844069E0,-3.137532E-1,9.467747E-1,-2.1335595E0,-4.8873013E-1,7.655435E-1,-4.210054E-1,-6.615531E-1,5.4786507E-2,6.673004E-1,7.317526E-1,-9.93127E-2,-1.7027028E-1,2.7931035E-1,-1.972603E-1,1.2857142E-1,1.1803278E-1,-1.9384618E-1,-1.6779664E-1,-2.1701142E-1,-1.5254251E-2,-1.631095E-1,2.7391306E-1,-1.5148516E-1,-1.9075159E-2,-1.1009711E-1,-8.89467E-2,3.3878878E-2,1.2857142E-1,-1.9453683E-1,3E-1,-1.3251536E-1,1.6431534E-1,-1.3333336E-1,-1.9059587E-1,1.855669E-2,-1.1240379E-1,6.8275854E-2,3.2727274E-1,-1.2857145E-1,1.2413793E-1,-1.9870132E-1,2.4285714E-1,-1.247525E-1,3.3565837E-1,-1.5517244E-1,5.5384606E-2,3.747541E-1,9.811694E-2,2.16E-1,1.3625498E-1,-1.488722E-1,-7.663455E-9,-1.9704145E-1,2.1724138E-1,-4.8265E-2,-1.7222872E-1,1.1464956E-2,1.8364249E-1,3.3128824E-2,-8.3968475E-2,2.9778337E-2,2.9712093E-1,-1.2857145E-1,1.5203619E-1,-7.4672505E-2,1.3177659E-1,2.3047244E-3,9.699247E-2,-2.7335258E-2],"split_indices":[13,21,16,3,25,10,21,20,21,48,3,14,3,38,9,7,0,17,18,12,7,13,21,3,7,43,46,9,13,5,16,7,23,32,16,6,16,5,5,2,0,33,4,8,18,1,14,3,49,18,42,5,2,23,24,25,32,30,20,5,23,0,0,0,0,0,0,0,0,0,0,0,0,0,0,0,0,0,0,0,0,0,0,0,0,0,0,0,0,0,0,0,0,0,0,0,0,0,0,0,0,0,0,0,0,0,0,0,0,0,0,0,0,0,0,0,0,0,0],"split_type":[0,0,0,0,0,0,0,0,0,0,0,0,0,0,0,0,0,0,0,0,0,0,0,0,0,0,0,0,0,0,0,0,0,0,0,0,0,0,0,0,0,0,0,0,0,0,0,0,0,0,0,0,0,0,0,0,0,0,0,0,0,0,0,0,0,0,0,0,0,0,0,0,0,0,0,0,0,0,0,0,0,0,0,0,0,0,0,0,0,0,0,0,0,0,0,0,0,0,0,0,0,0,0,0,0,0,0,0,0,0,0,0,0,0,0,0,0,0,0],"sum_hessian":[5.0568887E3,2.6075554E3,2.4493333E3,1.5297777E3,1.0777777E3,6.751111E2,1.7742222E3,4.622222E1,1.4835554E3,6.791111E2,3.9866666E2,2.853333E2,3.8977774E2,7.066666E2,1.0675555E3,3.9555553E1,6.666666E0,1.0866666E3,3.9688885E2,6.297777E2,4.9333332E1,9.111111E1,3.0755554E2,1.3777777E1,2.7155554E2,2.742222E2,1.1555555E2,1.5999998E2,5.466666E2,3.0577777E2,7.617777E2,3.1111109E1,8.444444E0,1.1999999E1,1.0746666E3,3.7999997E2,1.6888887E1,3.4266666E2,2.8711108E2,4.7111107E1,2.222222E0,5.733333E1,3.3777775E1,1.6355554E2,1.4399998E2,3.9999998E0,9.777777E0,1.1422221E2,1.5733333E2,3.9111107E1,2.351111E2,9.6444435E1,1.911111E1,4.9333332E1,1.1066666E2,1.1822221E2,4.2844443E2,6.133333E1,2.4444443E2,4.3688885E2,3.2488885E2,3.111111E0,2.7999998E1,7.1111107E0,1.3333333E0,5.7777777E0,6.222222E0,7.111111E1,1.0035555E3,1.8666666E1,3.613333E2,6.666666E0,1.0222221E1,1.7199998E2,1.7066666E2,8.444444E1,2.0266666E2,1.3333333E0,4.5777775E1,3.9999998E0,5.333333E1,2.5777777E1,7.9999995E0,1.5377777E2,9.777777E0,1.2888889E2,1.5111111E1,2.6666665E0,1.3333333E0,2.222222E0,7.5555553E0,1.0399999E2,1.0222221E1,1.551111E2,2.222222E0,6.222222E0,3.2888885E1,1.1111111E2,1.2399999E2,8.2666664E1,1.3777777E1,1.3333333E0,1.7777777E1,1.5111111E1,3.422222E1,9.422221E1,1.6444443E1,6.4888885E1,5.333333E1,8.355555E1,3.4488885E2,5.6888885E1,4.444444E0,2.1999998E2,2.4444443E1,3.5111108E2,8.577777E1,1.3199998E2,1.9288887E2],"tree_param":{"num_deleted":"0","num_feature":"50","num_nodes":"119","size_leaf_vector":"1"}},{"base_weights":[3.339466E-2,1.4651565E-1,-1.8417032E-1,3.8107234E-1,6.806897E-2,-1.0461813E-1,-3.5921767E-1,5.3531E-1,2.7279827E-1,-3.7679043E-1,1.1366877E-1,4.215313E-2,-1.8450004E-1,-4.058064E-1,-1.03611335E-1,6.4452183E-1,2.5369066E-1,3.614757E-1,3.6859608E-3,-4.1808572E-1,4.499666E-1,-2.3667661E-2,2.1065432E-1,-7.764765E-2,2.6919043E-1,-2.4894977E-1,-6.354059E-3,-4.749816E-1,-2.5963113E-1,2.1114685E-1,-2.869091E-1,1.1420395E-2,6.803774E-1,7.306053E-1,5.3772915E-2,2.4009939E-1,5.8379436E-1,6.690007E-1,-7.121672E-2,-9.105422E-2,-4.6388373E-1,-1.5762122E-1,7.914938E-1,1.1047928E-1,-1.5631025E-1,2.834056E-1,2.16124E-2,-1.5984732E-1,1.9870485E-1,1.729509E-1,9.456599E-1,-2.944721E-1,2.2131453E-1,3.4853944E-1,-4.2433243E-2,-1.37288E-3,-4.999329E-1,2.1403661E-1,-3.5813105E-1,-1.6511929E-1,6.409522E-1,-3.770176E-1,3.9814407E-1,-1.23981155E-1,2.1419582E-1,2.3882598E-1,1.4226167E-1,2.7088866E-1,-3.897139E-2,-5.589329E-2,1.7636646E-1,1.150094E-1,-2.6735812E-3,3.9676767E-2,2.0399508E-1,3.2874107E-1,-1.6047378E-1,1.0316024E-1,-6.36095E-2,-1.24377996E-1,9.3032666E-2,-1.4418581E-1,1.15153365E-1,-5.171491E-2,3.3569077E-1,-3.548063E-3,1.0980873E-1,3.237535E-2,-7.312019E-2,1.4942832E-1,7.068723E-2,7.894568E-2,-3.5055205E-2,-8.5009515E-2,3.1162236E-2,1.817674E-1,-3.4511626E-2,7.983403E-2,-1.3941291E-1,3.3969915E-1,-1.4421755E-1,-1.4456528E-1,-7.011122E-2,-6.9179036E-2,1.7718251E-1,-6.4929314E-2,3.9919995E-2,-1.571925E-1,1.9059338E-1,2.365842E-2,-1.5462804E-1,3.4529287E-1,-8.638607E-2,-1.2661327E-1,8.94832E-2,1.0691798E-1,-1.438312E-1,2.5999913E-1,-1.4758603E-1,-1.3757484E-1,1.3035786E-1,-1.5758348E-1,3.2726157E-1],"categories":[],"categories_nodes":[],"categories_segments":[],"categories_sizes":[],"default_left":[0,0,0,0,0,0,0,0,0,0,0,0,0,0,0,0,0,0,0,0,0,0,0,0,0,0,0,0,0,0,0,0,0,0,0,0,0,0,0,0,0,0,0,0,0,0,0,0,0,0,0,0,0,0,0,0,0,0,0,0,0,0,0,0,0,0,0,0,0,0,0,0,0,0,0,0,0,0,0,0,0,0,0,0,0,0,0,0,0,0,0,0,0,0,0,0,0,0,0,0,0,0,0,0,0,0,0,0,0,0,0,0,0,0,0,0,0,0,0,0,0,0,0],"id":3,"left_children":[1,3,5,7,9,11,13,15,17,19,21,23,25,27,29,31,33,35,37,39,41,43,45,47,49,51,53,55,57,59,61,63,65,67,69,71,73,75,77,79,81,-1,83,85,87,89,91,93,95,97,99,101,103,-1,105,107,109,111,113,115,117,119,121,-1,-1,-1,-1,-1,-1,-1,-1,-1,-1,-1,-1,-1,-1,-1,-1,-1,-1,-1,-1,-1,-1,-1,-1,-1,-1,-1,-1,-1,-1,-1,-1,-1,-1,-1,-1,-1,-1,-1,-1,-1,-1,-1,-1,-1,-1,-1,-1,-1,-1,-1,-1,-1,-1,-1,-1,-1,-1,-1,-1],"loss_changes":[1.2414745E2,6.1037277E1,2.399265E1,1.37402115E1,5.051528E1,1.3934653E1,6.3739777E0,1.0352699E1,1.170623E1,8.093857E0,3.0074694E1,1.1430001E1,8.832178E0,4.481308E0,4.930323E0,5.570305E0,9.227556E0,9.816711E0,6.15739E0,3.2687035E0,4.245849E0,1.6659508E1,1.8192616E1,6.286718E0,9.283569E0,1.2159664E1,8.707297E0,3.6377487E0,7.004284E0,5.2226276E0,3.4690433E0,4.528361E0,5.1699677E0,4.363408E0,9.03003E0,8.578845E0,5.539448E0,7.0102897E0,6.5667114E0,3.814573E0,2.932026E0,0E0,3.006774E0,1.4556673E1,1.0899334E1,9.683716E0,1.2365324E1,6.960645E0,8.191141E0,7.7431345E0,5.2969904E0,5.7585983E0,8.552958E0,0E0,6.1434126E0,5.7936444E0,2.6635666E0,1.264831E1,5.2984962E0,3.066644E0,4.2553306E0,3.3785305E0,4.882157E0,0E0,0E0,0E0,0E0,0E0,0E0,0E0,0E0,0E0,0E0,0E0,0E0,0E0,0E0,0E0,0E0,0E0,0E0,0E0,0E0,0E0,0E0,0E0,0E0,0E0,0E0,0E0,0E0,0E0,0E0,0E0,0E0,0E0,0E0,0E0,0E0,0E0,0E0,0E0,0E0,0E0,0E0,0E0,0E0,0E0,0E0,0E0,0E0,0E0,0E0,0E0,0E0,0E0,0E0,0E0,0E0,0E0,0E0,0E0,0E0],"parents":[2147483647,0,0,1,1,2,2,3,3,4,4,5,5,6,6,7,7,8,8,9,9,10,10,11,11,12,12,13,13,14,14,15,15,16,16,17,17,18,18,19,19,20,20,21,21,22,22,23,23,24,24,25,25,26,26,27,27,28,28,29,29,30,30,31,31,32,32,33,33,34,34,35,35,36,36,37,37,38,38,39,39,40,40,42,42,43,43,44,44,45,45,46,46,47,47,48,48,49,49,50,50,51,51,52,52,54,54,55,55,56,56,57,57,58,58,59,59,60,60,61,61,62,62],"right_children":[2,4,6,8,10,12,14,16,18,20,22,24,26,28,30,32,34,36,38,40,42,44,46,48,50,52,54,56,58,60,62,64,66,68,70,72,74,76,78,80,82,-1,84,86,88,90,92,94,96,98,100,102,104,-1,106,108,110,112,114,116,118,120,122,-1,-1,-1,-1,-1,-1,-1,-1,-1,-1,-1,-1,-1,-1,-1,-1,-1,-1,-1,-1,-1,-1,-1,-1,-1,-1,-1,-1,-1,-1,-1,-1,-1,-1,-1,-1,-1,-1,-1,-1,-1,-1,-1,-1,-1,-1,-1,-1,-1,-1,-1,-1,-1,-1,-1,-1,-1,-1,-1,-1],"split_conditions":[1.2207512E-1,-6.877104E-1,8.336556E-2,-5.862616E-1,-1.6399546E0,-6.2872756E-1,7.233831E-1,4.6863937E-1,-2.587256E-1,1.1188397E0,-2.7074537E-1,1.03707395E-1,4.7783396E-1,-3.099472E-1,-1.7751828E-1,-1.2913351E0,-1.7085365E0,4.3265182E-1,-6.386294E-1,-1.2018435E0,-1.4547324E0,-6.830344E-1,5.342552E-1,1.4919412E-1,6.712787E-1,1.140953E0,-9.964831E-1,-1.013306E0,-7.005179E-1,-3.5471034E-1,7.185135E-1,2.3620859E-1,6.4131397E-1,1.0869817E0,1.4630988E-1,5.8019906E-1,-3.4201097E-1,5.920138E-3,-4.4035798E-1,-9.3169665E-1,2.2274535E0,-1.5762122E-1,-2.778809E-1,4.8649004E-1,-1.6489412E-1,-6.314051E-1,-6.3675547E-1,-2.6109082E-1,-1.5566069E-1,9.0923285E-1,1.6619918E0,-5.92727E-1,1.0075302E-1,3.4853944E-1,-3.6595616E-1,-1.459224E-1,9.535269E-2,-8.5835695E-2,3.350765E-1,1.080358E0,-3.9550748E-1,7.1392393E-1,-1.790717E-1,-1.23981155E-1,2.1419582E-1,2.3882598E-1,1.4226167E-1,2.7088866E-1,-3.897139E-2,-5.589329E-2,1.7636646E-1,1.150094E-1,-2.6735812E-3,3.9676767E-2,2.0399508E-1,3.2874107E-1,-1.6047378E-1,1.0316024E-1,-6.36095E-2,-1.24377996E-1,9.3032666E-2,-1.4418581E-1,1.15153365E-1,-5.171491E-2,3.3569077E-1,-3.548063E-3,1.0980873E-1,3.237535E-2,-7.312019E-2,1.4942832E-1,7.068723E-2,7.894568E-2,-3.5055205E-2,-8.5009515E-2,3.1162236E-2,1.817674E-1,-3.4511626E-2,7.983403E-2,-1.3941291E-1,3.3969915E-1,-1.4421755E-1,-1.4456528E-1,-7.011122E-2,-6.9179036E-2,1.7718251E-1,-6.4929314E-2,3.9919995E-2,-1.571925E-1,1.9059338E-1,2.365842E-2,-1.5462804E-1,3.4529287E-1,-8.638607E-2,-1.2661327E-1,8.94832E-2,1.0691798E-1,-1.438312E-1,2.5999913E-1,-1.4758603E-1,-1.3757484E-1,1.3035786E-1,-1.5758348E-1,3.2726157E-1],"split_indices":[13,8,1,22,5,22,24,15,21,46,47,30,10,47,29,20,0,3,23,33,18,48,7,33,12,32,39,39,15,16,10,24,44,3,24,28,46,21,43,39,0,0,16,18,15,15,23,16,42,5,45,43,47,0,9,10,21,25,3,24,22,4,18,0,0,0,0,0,0,0,0,0,0,0,0,0,0,0,0,0,0,0,0,0,0,0,0,0,0,0,0,0,0,0,0,0,0,0,0,0,0,0,0,0,0,0,0,0,0,0,0,0,0,0,0,0,0,0,0,0,0,0,0],"split_type":[0,0,0,0,0,0,0,0,0,0,0,0,0,0,0,0,0,0,0,0,0,0,0,0,0,0,0,0,0,0,0,0,0,0,0,0,0,0,0,0,0,0,0,0,0,0,0,0,0,0,0,0,0,0,0,0,0,0,0,0,0,0,0,0,0,0,0,0,0,0,0,0,0,0,0,0,0,0,0,0,0,0,0,0,0,0,0,0,0,0,0,0,0,0,0,0,0,0,0,0,0,0,0,0,0,0,0,0,0,0,0,0,0,0,0,0,0,0,0,0,0,0,0],"sum_hessian":[5.0422583E3,3.3176187E3,1.7246398E3,8.305134E2,2.4871052E3,1.1868572E3,5.377826E2,3.4092212E2,4.8959128E2,2.3056006E2,2.2565452E3,4.1846378E2,7.6839343E2,4.5437686E2,8.340572E1,2.4472804E2,9.6194084E1,3.6798895E2,1.2160233E2,2.2006256E2,1.0497497E1,9.342938E2,1.3222513E3,2.7435358E2,1.4411017E2,5.639646E2,2.0442883E2,3.068944E2,1.4748244E2,3.0639597E1,5.276613E1,1.3187907E1,2.3154015E2,2.762902E1,6.856506E1,2.3937863E2,1.2861034E2,1.1502355E1,1.10099976E2,2.7399332E1,1.9266322E2,2.5828152E0,7.914682E0,4.6459586E2,4.6969794E2,9.5444244E2,3.6780887E2,2.1178175E2,6.2571842E1,1.2726079E2,1.684939E1,5.14531E2,4.9433605E1,5.189955E0,1.9923888E2,1.5411857E1,2.9148257E2,2.5187498E1,1.22294945E2,1.6665705E1,1.3973893E1,4.7029724E1,5.736406E0,8.476034E0,4.7118726E0,1.4647386E2,8.506628E1,2.2977402E1,4.6516194E0,4.775186E1,2.08132E1,1.5161148E2,8.776715E1,2.3002972E1,1.0560736E2,8.55817E0,2.9441836E0,2.7524187E1,8.257579E1,1.5148527E1,1.2250805E1,1.8935803E2,3.305199E0,2.1271937E0,5.787488E0,3.1485834E2,1.497375E2,1.1671276E2,3.5298517E2,1.720362E2,7.8240625E2,1.3369174E2,2.3411713E2,1.4417897E2,6.760278E1,2.6825579E1,3.574626E1,1.1154646E2,1.571432E1,1.5081794E1,1.767596E0,1.2428842E2,3.9024258E2,2.239906E1,2.7034546E1,9.993047E1,9.93084E1,8.561469E0,6.850387E0,7.4927144E0,2.8398984E2,8.33598E0,1.6851517E1,1.1176923E2,1.0525708E1,6.216877E0,1.0448828E1,1.184833E1,2.1255631E0,4.3129837E1,3.8998885E0,2.5623965E0,3.1740096E0],"tree_param":{"num_deleted":"0","num_feature":"50","num_nodes":"123","size_leaf_vector":"1"}},{"base_weights":[3.298079E-2,2.524694E-1,-8.183958E-2,1.0231303E-2,3.4232318E-1,-1.6373536E-1,1.1069497E-1,1.3778764E-1,-2.550972E-1,4.2354447E-1,7.2726324E-2,-5.8284238E-2,-2.82453E-1,3.0228072E-1,-5.118457E-2,-3.2580948E-1,2.0625848E-1,-9.1559075E-2,-4.4615445E-1,5.2870715E-1,2.9040527E-1,2.1901464E-1,-3.272746E-1,-1.2509286E-1,1.8513255E-1,-5.2145606E-1,-2.3060298E-1,5.476714E-1,7.144524E-2,8.085322E-1,-1.08623795E-1,3.344136E-1,-4.9824956E-1,5.314387E-1,9.4987065E-2,-6.2137455E-1,5.8624145E-2,-5.3121644E-1,5.867742E-1,5.620641E-1,-2.9320353E-1,-2.156385E-2,3.5789406E-1,6.4477956E-1,1.2520899E-1,-4.9783054E-1,1.8029113E-1,-6.40978E-2,-3.864909E-1,-1.9299318E-1,3.145177E-1,2.2083785E-1,-5.5575484E-1,6.7718044E-2,-2.8395474E-1,1.3214083E-1,6.571933E-1,2.644942E-1,-2.2716686E-1,-1.052703E-1,9.5391583E-1,2.436772E-5,-3.8153437E-1,-1.2788934E-1,3.713171E-1,-1.8244117E-1,1.7422575E-1,2.115048E-1,-7.740569E-2,7.3112745E-4,1.7990915E-1,7.77399E-3,-2.0132051E-1,1.2988634E-1,-9.1116935E-2,-1.7174202E-1,1.839659E-1,2.9124615E-1,-1.2597196E-1,1.7495391E-1,-1.7328389E-2,-1.3405989E-1,2.6220274E-1,-8.777872E-2,2.1048182E-1,1.2925951E-1,-2.9082526E-2,1.1134857E-1,3.43329E-1,1.7153297E-2,2.3980938E-1,-1.7600705E-1,-8.410563E-3,-9.15433E-2,1.7736232E-1,-9.205732E-2,-2.6204658E-3,-1.2967129E-1,3.1506744E-1,-9.266652E-2,2.4095425E-1,2.2712332E-1,6.4906664E-2,-1.17114745E-1,2.3737985E-1,3.146708E-2,-1.7464234E-1,-4.658313E-2,1.6991073E-1,-1.1984856E-1,-5.7119794E-2,3.2148913E-1,-2.5963468E-2,2.190936E-1,-8.94209E-2,1.7032501E-1,2.1044744E-2,2.8484482E-1,-9.451225E-2,-1.5049359E-1,8.699791E-2,3.1021997E-1,-1.283205E-1,-7.351859E-2,4.802335E-2,-1.3825794E-1,9.524119E-2],"categories":[],"categories_nodes":[],"categories_segments":[],"categories_sizes":[],"default_left":[0,0,0,0,0,0,0,0,0,0,0,0,0,0,0,0,0,0,0,0,0,0,0,0,0,0,0,0,0,0,0,0,0,0,0,0,0,0,0,0,0,0,0,0,0,0,0,0,0,0,0,0,0,0,0,0,0,0,0,0,0,0,0,0,0,0,0,0,0,0,0,0,0,0,0,0,0,0,0,0,0,0,0,0,0,0,0,0,0,0,0,0,0,0,0,0,0,0,0,0,0,0,0,0,0,0,0,0,0,0,0,0,0,0,0,0,0,0,0,0,0,0,0,0,0,0,0],"id":4,"left_children":[1,3,5,7,9,11,13,15,17,19,21,23,25,27,29,31,33,35,37,39,41,43,45,47,49,51,53,55,57,59,61,63,65,67,69,71,73,75,77,79,81,83,85,87,89,91,93,95,97,99,101,103,105,107,109,111,113,115,117,119,121,123,125,-1,-1,-1,-1,-1,-1,-1,-1,-1,-1,-1,-1,-1,-1,-1,-1,-1,-1,-1,-1,-1,-1,-1,-1,-1,-1,-1,-1,-1,-1,-1,-1,-1,-1,-1,-1,-1,-1,-1,-1,-1,-1,-1,-1,-1,-1,-1,-1,-1,-1,-1,-1,-1,-1,-1,-1,-1,-1,-1,-1,-1,-1,-1,-1],"loss_changes":[1.2710588E2,3.7699432E1,5.223337E1,1.5932127E1,2.7635727E1,2.907365E1,3.0682652E1,1.0156981E1,4.7349434E0,1.3438278E1,1.7259354E1,2.0056192E1,1.3422417E1,2.5621262E1,2.6596712E1,4.8677173E0,9.992805E0,6.6895313E0,6.4827814E0,1.5001007E1,9.074036E0,8.533008E0,6.933605E0,1.5395848E1,1.3059373E1,5.0625496E0,1.4340458E1,9.89933E0,1.3582577E1,4.582588E0,1.4946616E1,6.815012E0,4.2828627E0,9.849081E0,9.715354E0,6.141691E-1,9.091828E0,3.439745E0,2.657342E0,6.844391E0,4.293864E0,1.540138E1,1.1793728E1,4.865671E0,8.116849E0,2.4648924E0,4.293147E0,1.0552868E1,1.2467522E1,8.139849E0,8.452467E0,3.5461314E0,3.2988548E0,1.5356964E1,8.176823E0,9.753759E0,1.2329712E1,8.384057E0,9.878119E0,1.0121061E0,3.6766548E0,1.4221502E1,8.105225E0,0E0,0E0,0E0,0E0,0E0,0E0,0E0,0E0,0E0,0E0,0E0,0E0,0E0,0E0,0E0,0E0,0E0,0E0,0E0,0E0,0E0,0E0,0E0,0E0,0E0,0E0,0E0,0E0,0E0,0E0,0E0,0E0,0E0,0E0,0E0,0E0,0E0,0E0,0E0,0E0,0E0,0E0,0E0,0E0,0E0,0E0,0E0,0E0,0E0,0E0,0E0,0E0,0E0,0E0,0E0,0E0,0E0,0E0,0E0,0E0,0E0,0E0,0E0,0E0],"parents":[2147483647,0,0,1,1,2,2,3,3,4,4,5,5,6,6,7,7,8,8,9,9,10,10,11,11,12,12,13,13,14,14,15,15,16,16,17,17,18,18,19,19,20,20,21,21,22,22,23,23,24,24,25,25,26,26,27,27,28,28,29,29,30,30,31,31,32,32,33,33,34,34,35,35,36,36,37,37,38,38,39,39,40,40,41,41,42,42,43,43,44,44,45,45,46,46,47,47,48,48,49,49,50,50,51,51,52,52,53,53,54,54,55,55,56,56,57,57,58,58,59,59,60,60,61,61,62,62],"right_children":[2,4,6,8,10,12,14,16,18,20,22,24,26,28,30,32,34,36,38,40,42,44,46,48,50,52,54,56,58,60,62,64,66,68,70,72,74,76,78,80,82,84,86,88,90,92,94,96,98,100,102,104,106,108,110,112,114,116,118,120,122,124,126,-1,-1,-1,-1,-1,-1,-1,-1,-1,-1,-1,-1,-1,-1,-1,-1,-1,-1,-1,-1,-1,-1,-1,-1,-1,-1,-1,-1,-1,-1,-1,-1,-1,-1,-1,-1,-1,-1,-1,-1,-1,-1,-1,-1,-1,-1,-1,-1,-1,-1,-1,-1,-1,-1,-1,-1,-1,-1,-1,-1,-1,-1,-1,-1],"split_conditions":[-4.5954835E-1,-6.4047223E-1,2.9250455E-1,-1.2470057E-1,-8.525244E-2,5.472888E-2,-1.1376809E-1,-1.3064529E0,3.6060292E-1,-2.0596739E-2,1.7715925E-2,6.1292636E-1,-1.151769E0,-3.3013245E-1,-1.3373015E0,-1.8621486E-1,-7.5061846E-1,-3.5505235E-1,2.8523985E-1,2.090861E0,-5.945333E-1,-9.264733E-1,8.8803816E-1,8.5077864E-1,-8.1740415E-1,-1.4981152E0,-7.6132417E-1,-4.6092606E-1,-4.8986262E-1,4.911665E-1,7.9289347E-1,1.1551858E-1,-3.9496025E-1,5.908239E-1,4.1670737E-1,-9.616673E-1,8.3943915E-1,1.8459653E0,9.720749E-1,2.129449E0,-3.1856117E-1,8.009321E-1,1.2497947E0,7.170266E-1,6.2710655E-1,7.652652E-1,5.0669694E-1,-9.086487E-1,1.4221499E0,4.7953027E-1,-1.6399546E0,-1.4664596E0,-2.9589242E-1,-2.7615657E-2,-5.801387E-1,-1.3661171E0,2.5708103E0,-3.694583E-1,-1.2190373E0,6.988423E-1,3.406979E-1,-3.995232E-1,2.5708103E0,-1.2788934E-1,3.713171E-1,-1.8244117E-1,1.7422575E-1,2.115048E-1,-7.740569E-2,7.3112745E-4,1.7990915E-1,7.77399E-3,-2.0132051E-1,1.2988634E-1,-9.1116935E-2,-1.7174202E-1,1.839659E-1,2.9124615E-1,-1.2597196E-1,1.7495391E-1,-1.7328389E-2,-1.3405989E-1,2.6220274E-1,-8.777872E-2,2.1048182E-1,1.2925951E-1,-2.9082526E-2,1.1134857E-1,3.43329E-1,1.7153297E-2,2.3980938E-1,-1.7600705E-1,-8.410563E-3,-9.15433E-2,1.7736232E-1,-9.205732E-2,-2.6204658E-3,-1.2967129E-1,3.1506744E-1,-9.266652E-2,2.4095425E-1,2.2712332E-1,6.4906664E-2,-1.17114745E-1,2.3737985E-1,3.146708E-2,-1.7464234E-1,-4.658313E-2,1.6991073E-1,-1.1984856E-1,-5.7119794E-2,3.2148913E-1,-2.5963468E-2,2.190936E-1,-8.94209E-2,1.7032501E-1,2.1044744E-2,2.8484482E-1,-9.451225E-2,-1.5049359E-1,8.699791E-2,3.1021997E-1,-1.283205E-1,-7.351859E-2,4.802335E-2,-1.3825794E-1,9.524119E-2],"split_indices":[13,6,7,24,19,11,11,7,10,18,40,3,9,45,14,45,14,39,23,38,33,5,8,21,8,30,5,25,49,6,21,34,25,41,48,5,29,16,42,47,49,2,39,3,37,16,39,7,5,22,5,27,21,0,22,36,23,10,43,13,27,48,23,0,0,0,0,0,0,0,0,0,0,0,0,0,0,0,0,0,0,0,0,0,0,0,0,0,0,0,0,0,0,0,0,0,0,0,0,0,0,0,0,0,0,0,0,0,0,0,0,0,0,0,0,0,0,0,0,0,0,0,0,0,0,0,0],"split_type":[0,0,0,0,0,0,0,0,0,0,0,0,0,0,0,0,0,0,0,0,0,0,0,0,0,0,0,0,0,0,0,0,0,0,0,0,0,0,0,0,0,0,0,0,0,0,0,0,0,0,0,0,0,0,0,0,0,0,0,0,0,0,0,0,0,0,0,0,0,0,0,0,0,0,0,0,0,0,0,0,0,0,0,0,0,0,0,0,0,0,0,0,0,0,0,0,0,0,0,0,0,0,0,0,0,0,0,0,0,0,0,0,0,0,0,0,0,0,0,0,0,0,0,0,0,0,0],"sum_hessian":[5.0417114E3,1.7311934E3,3.3105178E3,4.6870868E2,1.2624846E3,2.3226946E3,9.8782324E2,3.1685956E2,1.5184912E2,9.6975586E2,2.9272876E2,1.2308666E3,1.0918281E3,4.520047E2,5.3581854E2,4.029241E1,2.7656714E2,8.2613846E1,6.923527E1,5.401424E2,4.2961346E2,2.1467155E2,7.8057205E1,9.6617456E2,2.6469196E2,1.9302425E2,8.988039E2,2.1842961E2,2.3357509E2,3.2738068E1,5.030805E2,8.149818E0,3.2142593E1,6.954688E1,2.0702026E2,1.7553007E1,6.5060844E1,6.441629E1,4.818983E0,5.193797E2,2.0762722E1,7.653026E1,3.530832E2,3.769735E1,1.7697421E2,5.8439217E1,1.9617992E1,7.843891E2,1.8178546E2,6.73554E1,1.9733656E2,8.284861E0,1.8473938E2,1.3631532E2,7.624886E2,4.6023006E1,1.724066E2,1.4193207E2,9.164303E1,4.531492E0,2.8206573E1,3.605444E2,1.4253609E2,4.7107716E0,3.4390466E0,2.9567745E1,2.5748472E0,5.7099445E1,1.2447436E1,1.7579004E2,3.1230234E1,1.2856243E0,1.6267384E1,3.1905422E1,3.315542E1,6.265727E1,1.7590187E0,3.5140164E0,1.3049666E0,5.023261E2,1.7053576E1,1.8892666E1,1.8700557E0,5.610024E1,2.0430021E1,3.0431372E2,4.8769463E1,2.5484446E1,1.2212902E1,1.6173753E2,1.52366705E1,4.8934635E1,9.50458E0,9.111522E0,1.0506471E1,1.4482143E2,6.395677E2,1.768534E2,4.93207E0,6.0953926E1,6.4014745E0,3.4605694E1,1.6273087E2,4.1517963E0,4.133064E0,6.9808593E0,1.7775853E2,9.466849E1,4.164684E1,3.3969583E2,4.2279276E2,7.953572E0,3.8069435E1,1.6036711E2,1.2039491E1,5.468316E1,8.724891E1,5.687062E0,8.595597E1,2.1281824E0,2.4033098E0,2.6897781E1,1.3087924E0,1.422259E2,2.1831851E2,1.2831514E2,1.4220938E1],"tree_param":{"num_deleted":"0","num_feature":"50","num_nodes":"127","size_leaf_vector":"1"}},{"base_weights":[-6.772472E-2,-4.40462E-1,2.0749135E-1,-5.8829546E-1,-2.862547E-1,8.813622E-4,3.4651098E-1,2.8169808E-1,-6.263234E-1,-2.0720255E-1,-4.5927492E-1,7.540651E-2,-2.0049168E-1,2.583302E-1,4.97552E-1,9.712539E-1,7.3221125E-2,-1.1706054E-1,-6.320149E-1,-2.9584992E-1,-6.269284E-2,6.8150234E-1,-4.8655406E-1,2.8817266E-1,-2.6104989E-2,-4.346031E-1,-8.191422E-2,3.3227864E-1,6.282415E-2,5.9214586E-1,2.4998625E-1,3.272919E-1,4.6970892E-1,2.977376E-1,-5.3653055E-1,3.6365256E-1,-1.782169E-1,-6.741781E-1,-5.573717E-1,-1.7153831E-1,-4.9126577E-1,1.5597958E-2,-4.3273067E-1,9.4559973E-1,-1.1974623E-1,-1.642165E-1,-5.241885E-1,-5.987689E-2,4.9780208E-1,6.11352E-2,-3.997171E-1,4.9504045E-1,-5.0419176E-1,2.930869E-1,-1.8970269E-1,3.6641347E-1,-1.7583188E-1,-1.1119184E-1,3.3966702E-1,6.0726976E-1,-2.4322622E-1,3.295197E-2,5.864391E-1,2.3202826E-1,-1.1095393E-2,-9.691088E-2,1.9505152E-1,1.0113329E-2,-1.8679135E-1,-1.582749E-1,2.735478E-1,-2.0359235E-1,-6.818143E-2,-1.7012168E-1,1.8716034E-1,-3.615853E-2,-2.0452125E-1,-1.5757132E-1,9.073852E-2,3.1648766E-2,-1.2007229E-1,1.0589439E-1,-1.5043427E-1,3.1541848E-1,9.884507E-2,1.1381035E-1,-1.371157E-1,-1.13084085E-1,-1.8085542E-1,1.2496587E-1,-6.981902E-2,-7.0702314E-2,1.7434704E-1,5.8010846E-2,-3.1812876E-2,-1.3150789E-1,2.4311556E-1,-1.4060086E-1,2.55643E-1,-1.6483545E-1,2.324097E-1,-1.0424614E-1,1.4776543E-1,6.577824E-2,-8.8073306E-2,9.657703E-2,2.255717E-1,1.1911901E-1,-1.2292527E-1,-1.0171499E-1,8.3780386E-2,-5.185727E-3,1.5971863E-1,1.6949378E-1,2.6475337E-1,-1.6225477E-1,2.2909287E-1,-1.826526E-2,2.2527629E-1,1.9196562E-1,-1.6245502E-1],"categories":[],"categories_nodes":[],"categories_segments":[],"categories_sizes":[],"default_left":[0,0,0,0,0,0,0,0,0,0,0,0,0,0,0,0,0,0,0,0,0,0,0,0,0,0,0,0,0,0,0,0,0,0,0,0,0,0,0,0,0,0,0,0,0,0,0,0,0,0,0,0,0,0,0,0,0,0,0,0,0,0,0,0,0,0,0,0,0,0,0,0,0,0,0,0,0,0,0,0,0,0,0,0,0,0,0,0,0,0,0,0,0,0,0,0,0,0,0,0,0,0,0,0,0,0,0,0,0,0,0,0,0,0,0,0,0,0,0,0,0],"id":5,"left_children":[1,3,5,7,9,11,13,15,17,19,21,23,25,27,29,31,33,35,37,39,41,43,45,47,49,51,53,55,57,59,61,-1,63,65,67,69,-1,71,73,75,77,79,81,83,-1,85,87,89,91,93,95,97,99,101,103,105,107,109,111,113,115,117,119,-1,-1,-1,-1,-1,-1,-1,-1,-1,-1,-1,-1,-1,-1,-1,-1,-1,-1,-1,-1,-1,-1,-1,-1,-1,-1,-1,-1,-1,-1,-1,-1,-1,-1,-1,-1,-1,-1,-1,-1,-1,-1,-1,-1,-1,-1,-1,-1,-1,-1,-1,-1,-1,-1,-1,-1,-1,-1],"loss_changes":[5.0711093E2,4.769699E1,8.1683945E1,3.561029E1,1.3987488E1,1.7196606E1,2.2513718E1,6.476164E0,2.901184E0,9.058128E0,1.0354347E1,1.8071123E1,8.556888E0,1.5527138E1,1.4501648E1,1.1751747E-1,5.0953417E0,3.098865E0,2.8183594E0,1.0577217E1,7.8478813E0,2.6430368E0,3.736824E0,1.9745642E1,1.8509287E1,6.96681E0,8.410222E0,1.3594078E1,1.4315609E1,5.8569336E0,1.2735833E1,0E0,6.099775E-1,6.1157026E0,5.149219E-1,3.843327E0,0E0,1.1298218E0,4.617813E0,6.9388623E0,4.745575E0,8.429458E0,2.7307749E0,8.874893E-2,0E0,5.649702E0,3.035904E0,8.535457E0,1.0454395E1,1.0203594E1,5.3816414E0,3.0615702E0,6.0458527E0,6.117551E0,6.91028E0,1.2299858E1,6.833969E0,1.6352709E1,7.895629E0,4.6712646E0,3.0350316E0,7.2707233E0,4.472101E0,0E0,0E0,0E0,0E0,0E0,0E0,0E0,0E0,0E0,0E0,0E0,0E0,0E0,0E0,0E0,0E0,0E0,0E0,0E0,0E0,0E0,0E0,0E0,0E0,0E0,0E0,0E0,0E0,0E0,0E0,0E0,0E0,0E0,0E0,0E0,0E0,0E0,0E0,0E0,0E0,0E0,0E0,0E0,0E0,0E0,0E0,0E0,0E0,0E0,0E0,0E0,0E0,0E0,0E0,0E0,0E0,0E0,0E0],"parents":[2147483647,0,0,1,1,2,2,3,3,4,4,5,5,6,6,7,7,8,8,9,9,10,10,11,11,12,12,13,13,14,14,15,15,16,16,17,17,18,18,19,19,20,20,21,21,22,22,23,23,24,24,25,25,26,26,27,27,28,28,29,29,30,30,32,32,33,33,34,34,35,35,37,37,38,38,39,39,40,40,41,41,42,42,43,43,45,45,46,46,47,47,48,48,49,49,50,50,51,51,52,52,53,53,54,54,55,55,56,56,57,57,58,58,59,59,60,60,61,61,62,62],"right_children":[2,4,6,8,10,12,14,16,18,20,22,24,26,28,30,32,34,36,38,40,42,44,46,48,50,52,54,56,58,60,62,-1,64,66,68,70,-1,72,74,76,78,80,82,84,-1,86,88,90,92,94,96,98,100,102,104,106,108,110,112,114,116,118,120,-1,-1,-1,-1,-1,-1,-1,-1,-1,-1,-1,-1,-1,-1,-1,-1,-1,-1,-1,-1,-1,-1,-1,-1,-1,-1,-1,-1,-1,-1,-1,-1,-1,-1,-1,-1,-1,-1,-1,-1,-1,-1,-1,-1,-1,-1,-1,-1,-1,-1,-1,-1,-1,-1,-1,-1,-1,-1],"split_conditions":[-2.8777975E-1,-6.357071E-1,2.0939004E-1,-1.6972584E0,-4.414548E-1,4.6866554E-1,1.0534514E0,-6.615531E-1,-1.7049035E0,-4.2310578E-1,-1.3859298E0,-3.9527568E-1,5.3519887E-1,2.2351311E-1,-6.772055E-2,5.1849234E-1,-8.57418E-1,-7.5537795E-1,-7.498804E-1,5.604002E-2,7.170266E-1,-1.2849239E0,-7.591811E-1,-3.2991078E-1,3.1423283E-1,-9.825921E-1,9.5581603E-1,9.734754E-1,3.7965307E-1,9.6923476E-1,1.8976042E0,3.272919E-1,-1.3664955E0,-6.6883266E-1,-1.1789113E0,-5.377751E-1,-1.782169E-1,4.2935357E0,1.6068271E0,7.1813226E-2,2.1576533E0,6.7042047E-1,-4.7246498E-1,1.5886525E0,-1.1974623E-1,-1.8965585E-2,1.731826E-2,-4.834097E-1,-8.5377944E-1,1.7676358E-1,2.9321077E0,-1.6029854E-1,1.6368802E0,4.952155E-1,-8.021833E-1,1.1789169E0,-1.1092836E0,3.6120117E-1,-1.9389947E-1,-8.4881864E-2,3.5254702E-1,5.429177E-1,1.6901705E0,2.3202826E-1,-1.1095393E-2,-9.691088E-2,1.9505152E-1,1.0113329E-2,-1.8679135E-1,-1.582749E-1,2.735478E-1,-2.0359235E-1,-6.818143E-2,-1.7012168E-1,1.8716034E-1,-3.615853E-2,-2.0452125E-1,-1.5757132E-1,9.073852E-2,3.1648766E-2,-1.2007229E-1,1.0589439E-1,-1.5043427E-1,3.1541848E-1,9.884507E-2,1.1381035E-1,-1.371157E-1,-1.13084085E-1,-1.8085542E-1,1.2496587E-1,-6.981902E-2,-7.0702314E-2,1.7434704E-1,5.8010846E-2,-3.1812876E-2,-1.3150789E-1,2.4311556E-1,-1.4060086E-1,2.55643E-1,-1.6483545E-1,2.324097E-1,-1.0424614E-1,1.4776543E-1,6.577824E-2,-8.8073306E-2,9.657703E-2,2.255717E-1,1.1911901E-1,-1.2292527E-1,-1.0171499E-1,8.3780386E-2,-5.185727E-3,1.5971863E-1,1.6949378E-1,2.6475337E-1,-1.6225477E-1,2.2909287E-1,-1.826526E-2,2.2527629E-1,1.9196562E-1,-1.6245502E-1],"split_indices":[13,21,21,3,25,1,13,32,17,21,46,3,1,47,20,0,12,32,13,35,3,26,40,34,16,4,1,3,14,37,21,0,27,43,41,30,0,48,4,23,22,22,13,6,0,49,16,12,9,49,36,13,49,8,10,14,7,45,29,42,5,45,3,0,0,0,0,0,0,0,0,0,0,0,0,0,0,0,0,0,0,0,0,0,0,0,0,0,0,0,0,0,0,0,0,0,0,0,0,0,0,0,0,0,0,0,0,0,0,0,0,0,0,0,0,0,0,0,0,0,0],"split_type":[0,0,0,0,0,0,0,0,0,0,0,0,0,0,0,0,0,0,0,0,0,0,0,0,0,0,0,0,0,0,0,0,0,0,0,0,0,0,0,0,0,0,0,0,0,0,0,0,0,0,0,0,0,0,0,0,0,0,0,0,0,0,0,0,0,0,0,0,0,0,0,0,0,0,0,0,0,0,0,0,0,0,0,0,0,0,0,0,0,0,0,0,0,0,0,0,0,0,0,0,0,0,0,0,0,0,0,0,0,0,0,0,0,0,0,0,0,0,0,0,0],"sum_hessian":[4.9415156E3,2.0986377E3,2.842878E3,1.0700249E3,1.0286129E3,1.1438711E3,1.699007E3,4.4544247E1,1.0254806E3,7.075391E2,3.2107382E2,8.3534717E2,3.0852393E2,1.0744385E3,6.245684E2,9.491493E0,3.5052753E1,1.15724325E1,1.0139082E3,4.3788046E2,2.6965863E2,6.938359E0,3.1413547E2,2.6922272E2,5.6612445E2,1.0283273E2,2.056912E2,7.790646E2,2.9537393E2,4.508924E2,1.7367604E2,6.7137027E0,2.7777903E0,2.5993427E1,9.059325E0,5.882105E0,5.690327E0,6.4278827E2,3.7111993E2,2.687781E2,1.6910236E2,2.2335924E2,4.629941E1,5.6761603E0,1.2621982E0,3.3403053E1,2.8073242E2,1.0146833E2,1.6775438E2,4.596341E2,1.06490364E2,6.735713E0,9.6097015E1,4.553918E1,1.6015201E2,7.302831E2,4.8781494E1,1.8173718E2,1.1363676E2,4.4314264E2,7.749753E0,1.0624132E2,6.743472E1,1.4076227E0,1.3701675E0,9.443375E0,1.6550053E1,1.2683339E0,7.7909913E0,2.2544003E0,3.6277049E0,6.359192E2,6.869094E0,3.6861273E2,2.5072021E0,2.4547197E2,2.3306131E1,1.6248615E2,6.616217E0,1.8426936E2,3.908987E1,3.3909037E0,4.290851E1,4.241373E0,1.4347873E0,1.1591158E1,2.1811895E1,9.9771545E1,1.8096086E2,2.663773E1,7.4830605E1,1.693226E1,1.5082211E2,2.565511E2,2.0308302E2,1.0381303E2,2.6773386E0,1.7366397E0,4.999073E0,9.336327E1,2.7337418E0,1.0636928E1,3.4902252E1,3.2213657E1,1.27938354E2,6.563663E2,7.391679E1,1.3940971E1,3.4840523E1,1.1484783E2,6.688935E1,4.0162323E1,7.3474434E1,3.8676874E2,5.6373898E1,6.338871E0,1.4108825E0,9.477035E1,1.1470971E1,6.479712E1,2.637599E0],"tree_param":{"num_deleted":"0","num_feature":"50","num_nodes":"121","size_leaf_vector":"1"}},{"base_weights":[2.7957687E-2,1.4479041E-1,-1.085082E-1,-1.4884026E-1,1.9188884E-1,9.5403284E-2,-1.6326743E-1,-2.0747308E-1,3.426308E-1,3.0219537E-1,8.3148845E-2,-6.8261474E-2,2.3542371E-1,-2.6400653E-1,-6.725772E-2,-1.5400414E-4,-3.0622888E-1,9.775569E-2,1.0133635E0,3.7680385E-1,1.5507045E-1,-6.7753005E-3,2.667164E-1,-1.3748302E-1,6.883102E-1,2.8043252E-1,-4.676664E-1,5.339713E-1,-2.805371E-1,1.525776E-1,-1.3456708E-1,3.3091548E-1,-2.8058484E-1,-3.3070782E-1,7.618911E-1,5.012731E-1,-1.8755402E-1,3.2842386E-1,8.8326246E-2,2.3703523E-1,4.671552E-1,5.0811786E-3,2.696768E-1,-9.137257E-2,2.0370539E-1,-1.0187016E-1,3.3660054E-1,-2.2280973E-1,3.694007E-1,7.741239E-2,3.3853775E-1,2.1794969E-1,8.027824E-1,-5.837126E-1,1.6691881E-1,9.047589E-1,-4.3531504E-1,-4.087319E-1,-2.0836452E-1,-1.1460539E-1,4.0696174E-1,-1.8594319E-1,1.4042434E-1,1.3269751E-1,-1.931568E-1,-1.3189362E-1,1.0693057E-1,-2.3204936E-2,-1.3151501E-1,6.934373E-2,2.719982E-1,3.098225E-1,-9.2938356E-2,-9.1246955E-2,2.0878841E-1,9.474578E-2,-3.1710792E-2,2.5989693E-2,1.5777174E-1,1.120123E-1,-3.583639E-2,1.2988146E-1,2.269887E-2,-1.2248376E-1,-6.3510416E-3,1.11932926E-1,-1.0251983E-2,1.351065E-1,-8.853038E-2,-9.968217E-2,1.1516034E-1,1.5924445E-1,-8.1317194E-2,2.763224E-1,-3.8341575E-3,2.729388E-1,-1.04633115E-1,-7.448284E-2,8.313583E-2,3.1361377E-1,7.576574E-3,2.1197572E-2,-1.9382328E-1,-1.3353732E-1,3.2732606E-1,-1.7209974E-1,9.264862E-3,-1.2666856E-1,3.0030864E-1,-7.073365E-2,9.254275E-2,7.677081E-2,-7.535954E-2,-6.4677946E-2,1.6672E-1,6.287335E-3,-7.519156E-2,-6.9399066E-2,1.0188546E-1],"categories":[],"categories_nodes":[],"categories_segments":[],"categories_sizes":[],"default_left":[0,0,0,0,0,0,0,0,0,0,0,0,0,0,0,0,0,0,0,0,0,0,0,0,0,0,0,0,0,0,0,0,0,0,0,0,0,0,0,0,0,0,0,0,0,0,0,0,0,0,0,0,0,0,0,0,0,0,0,0,0,0,0,0,0,0,0,0,0,0,0,0,0,0,0,0,0,0,0,0,0,0,0,0,0,0,0,0,0,0,0,0,0,0,0,0,0,0,0,0,0,0,0,0,0,0,0,0,0,0,0,0,0,0,0,0,0,0,0],"id":6,"left_children":[1,3,5,7,9,11,13,15,17,19,21,23,25,27,29,31,33,35,37,39,41,43,45,47,49,51,53,55,57,59,61,63,65,67,69,71,73,-1,-1,75,77,79,81,83,85,87,89,91,93,95,-1,97,99,101,-1,103,105,107,109,111,113,115,117,-1,-1,-1,-1,-1,-1,-1,-1,-1,-1,-1,-1,-1,-1,-1,-1,-1,-1,-1,-1,-1,-1,-1,-1,-1,-1,-1,-1,-1,-1,-1,-1,-1,-1,-1,-1,-1,-1,-1,-1,-1,-1,-1,-1,-1,-1,-1,-1,-1,-1,-1,-1,-1,-1,-1,-1],"loss_changes":[7.956931E1,3.7211136E1,2.5720114E1,1.079677E1,2.7771767E1,1.1198329E1,1.7537483E1,6.8210487E0,6.478816E0,1.2565353E1,1.9288418E1,1.1917856E1,8.460176E0,1.1828838E1,1.379196E1,1.0165775E1,6.1522865E0,3.599052E0,2.9812622E-1,9.516838E0,6.679675E0,1.3999793E1,9.930344E0,9.064105E0,5.045827E0,7.9188995E0,2.2511585E0,6.9756417E0,7.9463043E0,1.4906387E1,1.0100222E1,5.7379975E0,6.163342E0,6.003414E0,2.0215678E-1,5.8729944E0,2.1239834E0,0E0,0E0,8.170828E0,1.0283318E1,7.8126307E0,6.9452515E0,1.2467178E1,9.09664E0,6.748756E0,1.0345406E1,6.6295424E0,6.3996644E0,3.5343025E0,0E0,6.2169294E0,4.9009266E0,6.597638E-1,0E0,3.8990622E0,3.8808787E-1,6.3522034E0,7.97081E0,5.5003514E0,1.0513269E1,8.053196E0,8.432892E0,0E0,0E0,0E0,0E0,0E0,0E0,0E0,0E0,0E0,0E0,0E0,0E0,0E0,0E0,0E0,0E0,0E0,0E0,0E0,0E0,0E0,0E0,0E0,0E0,0E0,0E0,0E0,0E0,0E0,0E0,0E0,0E0,0E0,0E0,0E0,0E0,0E0,0E0,0E0,0E0,0E0,0E0,0E0,0E0,0E0,0E0,0E0,0E0,0E0,0E0,0E0,0E0,0E0,0E0,0E0,0E0],"parents":[2147483647,0,0,1,1,2,2,3,3,4,4,5,5,6,6,7,7,8,8,9,9,10,10,11,11,12,12,13,13,14,14,15,15,16,16,17,17,18,18,19,19,20,20,21,21,22,22,23,23,24,24,25,25,26,26,27,27,28,28,29,29,30,30,31,31,32,32,33,33,34,34,35,35,36,36,39,39,40,40,41,41,42,42,43,43,44,44,45,45,46,46,47,47,48,48,49,49,51,51,52,52,53,53,55,55,56,56,57,57,58,58,59,59,60,60,61,61,62,62],"right_children":[2,4,6,8,10,12,14,16,18,20,22,24,26,28,30,32,34,36,38,40,42,44,46,48,50,52,54,56,58,60,62,64,66,68,70,72,74,-1,-1,76,78,80,82,84,86,88,90,92,94,96,-1,98,100,102,-1,104,106,108,110,112,114,116,118,-1,-1,-1,-1,-1,-1,-1,-1,-1,-1,-1,-1,-1,-1,-1,-1,-1,-1,-1,-1,-1,-1,-1,-1,-1,-1,-1,-1,-1,-1,-1,-1,-1,-1,-1,-1,-1,-1,-1,-1,-1,-1,-1,-1,-1,-1,-1,-1,-1,-1,-1,-1,-1,-1,-1,-1],"split_conditions":[-1.6029854E-1,-9.690471E-1,-8.761805E-1,1.058829E0,-3.1944332E-1,-1.2320358E0,-4.9063924E-1,-8.5281837E-1,5.023499E-1,-4.4491854E-1,-1.16280906E-1,1.6036445E0,2.073969E0,-1.1406763E0,-6.4146054E-1,8.336556E-2,1.6313853E0,-4.2213902E-1,1.1877077E0,-5.0764334E-1,-3.372404E-1,1.9782254E-1,-8.616874E-2,9.349811E-1,-3.7650876E-2,9.725034E-1,1.1252104E0,9.759294E-1,-3.7392595E-1,2.6619483E-3,1.1166993E0,1.0750052E0,2.0460942E-1,-2.0760965E-1,-1.03143886E-1,6.696474E-1,1.8762991E0,3.2842386E-1,8.8326246E-2,9.0923285E-1,-3.6719453E-1,-9.974367E-1,6.1237013E-1,-7.971515E-1,4.9200132E-1,-7.2621715E-1,-1.0362518E0,-1.2830874E0,8.293789E-1,1.8107165E0,3.3853775E-1,-1.0309227E0,2.0172475E-1,-6.7855954E-1,1.6691881E-1,-1.0229694E0,-1.4102241E0,2.129449E0,1.1870682E0,-1.6961138E-3,-8.543136E-1,-6.6922474E-1,-1.0269167E0,1.3269751E-1,-1.931568E-1,-1.3189362E-1,1.0693057E-1,-2.3204936E-2,-1.3151501E-1,6.934373E-2,2.719982E-1,3.098225E-1,-9.2938356E-2,-9.1246955E-2,2.0878841E-1,9.474578E-2,-3.1710792E-2,2.5989693E-2,1.5777174E-1,1.120123E-1,-3.583639E-2,1.2988146E-1,2.269887E-2,-1.2248376E-1,-6.3510416E-3,1.11932926E-1,-1.0251983E-2,1.351065E-1,-8.853038E-2,-9.968217E-2,1.1516034E-1,1.5924445E-1,-8.1317194E-2,2.763224E-1,-3.8341575E-3,2.729388E-1,-1.04633115E-1,-7.448284E-2,8.313583E-2,3.1361377E-1,7.576574E-3,2.1197572E-2,-1.9382328E-1,-1.3353732E-1,3.2732606E-1,-1.7209974E-1,9.264862E-3,-1.2666856E-1,3.0030864E-1,-7.073365E-2,9.254275E-2,7.677081E-2,-7.535954E-2,-6.4677946E-2,1.6672E-1,6.287335E-3,-7.519156E-2,-6.9399066E-2,1.0188546E-1],"split_indices":[13,5,0,46,1,2,16,21,10,21,19,35,21,7,15,1,43,43,16,24,47,27,6,37,37,10,15,23,10,18,23,38,10,33,9,37,32,0,0,5,4,7,29,38,9,36,3,17,26,27,0,14,40,11,0,33,8,47,45,21,5,32,46,0,0,0,0,0,0,0,0,0,0,0,0,0,0,0,0,0,0,0,0,0,0,0,0,0,0,0,0,0,0,0,0,0,0,0,0,0,0,0,0,0,0,0,0,0,0,0,0,0,0,0,0,0,0,0,0],"split_type":[0,0,0,0,0,0,0,0,0,0,0,0,0,0,0,0,0,0,0,0,0,0,0,0,0,0,0,0,0,0,0,0,0,0,0,0,0,0,0,0,0,0,0,0,0,0,0,0,0,0,0,0,0,0,0,0,0,0,0,0,0,0,0,0,0,0,0,0,0,0,0,0,0,0,0,0,0,0,0,0,0,0,0,0,0,0,0,0,0,0,0,0,0,0,0,0,0,0,0,0,0,0,0,0,0,0,0,0,0,0,0,0,0,0,0,0,0,0,0],"sum_hessian":[4.9886626E3,2.687634E3,2.3010288E3,3.7120856E2,2.3164253E3,4.869586E2,1.8140702E3,3.3215958E2,3.9048996E1,1.1490464E3,1.1673789E3,2.2475877E2,2.6219983E2,8.8437823E2,9.2969196E2,1.0749525E2,2.2466432E2,2.9444841E1,9.604155E0,7.6138135E2,3.876651E2,7.8419086E2,3.8318808E2,2.0666821E2,1.8090557E1,2.4698975E2,1.5210087E1,1.7313297E1,8.6706494E2,2.1763142E2,7.120605E2,4.9214195E1,5.8281048E1,2.2030579E2,4.358539E0,1.1882423E1,1.7562418E1,8.157974E0,1.4461809E0,3.0036163E2,4.6101968E2,1.6836472E2,2.1930038E2,5.597712E2,2.2441966E2,6.1000156E1,3.2218793E2,1.7737079E2,2.9297432E1,8.068243E0,1.0022314E1,2.2186748E2,2.5122267E1,1.404816E1,1.1619267E0,1.2571001E1,4.7422967E0,3.1063815E2,5.5642676E2,1.0641346E2,1.1121797E2,6.0024225E2,1.11818245E2,4.4656498E1,4.557698E0,4.6884163E1,1.1396886E1,6.6217026E1,1.5408876E2,1.4905651E0,2.867974E0,7.013424E0,4.869E0,1.6094128E1,1.46829E0,2.4428679E2,5.6074844E1,6.198999E1,3.990297E2,4.2040142E1,1.2632458E2,1.184196E2,1.0088078E2,1.00641464E2,4.5912973E2,1.3074304E2,9.367662E1,1.5467042E1,4.5533115E1,2.0867275E1,3.0132065E2,1.0070363E1,1.6730042E2,1.1412943E1,1.788449E1,2.3478918E0,5.7203507E0,2.4626657E1,1.9724081E2,1.8885344E1,6.2369223E0,1.2107941E0,1.2837366E1,1.3562804E0,1.1214721E1,3.479258E0,1.2630384E0,3.0838626E2,2.2518992E0,5.289158E2,2.7511017E1,2.8428312E1,7.798515E1,2.1364819E1,8.985315E1,1.4314117E2,4.571011E2,3.895513E1,7.286311E1],"tree_param":{"num_deleted":"0","num_feature":"50","num_nodes":"119","size_leaf_vector":"1"}},{"base_weights":[2.727458E-2,1.3347803E-1,-1.311083E-1,2.7247611E-2,2.7135363E-1,3.9001513E-1,-1.6059382E-1,-1.0664191E-1,1.2510353E-1,5.15966E-1,2.1336068E-1,1.3536721E-1,7.044477E-1,-1.9937225E-1,1.4299855E-1,-1.7079143E-1,1.769002E-1,1.9465134E-1,-1.2196464E-1,-1.9156727E-1,6.061125E-1,3.0440545E-1,6.216828E-2,4.997379E-1,-2.4150482E-1,7.6434433E-1,-1.550685E-1,-3.6301094E-1,-1.4434303E-1,-3.1205466E-1,2.2938238E-1,-1.0674985E-1,-3.9100045E-1,4.1774076E-1,-2.1285674E-1,3.4049907E-1,1.0747331E-1,-3.5058472E-1,1.6578335E-1,-5.421246E-1,2.1665499E-1,7.449079E-1,1.9636872E-1,3.575312E-1,7.185984E-2,4.5197663E-1,-5.3046085E-3,7.027074E-1,-2.3736298E-1,-4.3128467E-1,2.769198E-1,8.114921E-1,-1.3415894E-1,-3.9259824E-1,2.003185E-1,-2.6201655E-3,-2.357781E-1,6.192217E-1,-4.163542E-1,3.07283E-1,-3.9816025E-1,-8.405238E-2,-9.802971E-3,4.7260776E-2,-1.4212976E-1,3.5873896E-3,2.043405E-1,-9.6134946E-2,2.898732E-1,5.0570823E-2,1.5246381E-1,4.441758E-3,1.0571339E-1,-1.2247721E-1,1.63625E-1,1.4588488E-2,2.780601E-1,-1.962192E-1,1.08530976E-1,-9.730195E-2,2.4696434E-1,8.655769E-2,2.4573256E-1,1.1831286E-3,1.9699612E-1,1.512036E-1,8.207456E-2,1.2764177E-1,-2.8880669E-2,2.5606853E-1,2.9294977E-2,-3.3334147E-2,9.440813E-2,2.7311528E-1,5.1623106E-2,2.4765682E-1,-1.8284634E-1,1.7651354E-1,-1.6657643E-1,5.232837E-2,2.823483E-1,-3.714472E-2,-1.3101888E-1,-8.191316E-2,2.7530348E-1,2.371937E-2,-8.488546E-2,-1.3473096E-1,-4.8586354E-2,2.2572853E-1,7.2624944E-2,-1.56719E-1,1.730465E-1,7.59834E-2,3.565836E-1,2.325154E-1,-2.0427334E-1],"categories":[],"categories_nodes":[],"categories_segments":[],"categories_sizes":[],"default_left":[0,0,0,0,0,0,0,0,0,0,0,0,0,0,0,0,0,0,0,0,0,0,0,0,0,0,0,0,0,0,0,0,0,0,0,0,0,0,0,0,0,0,0,0,0,0,0,0,0,0,0,0,0,0,0,0,0,0,0,0,0,0,0,0,0,0,0,0,0,0,0,0,0,0,0,0,0,0,0,0,0,0,0,0,0,0,0,0,0,0,0,0,0,0,0,0,0,0,0,0,0,0,0,0,0,0,0,0,0,0,0,0,0,0,0,0,0],"id":7,"left_children":[1,3,5,7,9,11,13,15,17,19,21,23,25,27,29,31,33,35,37,39,41,43,45,47,49,51,-1,53,55,57,59,61,63,65,67,69,71,73,75,77,79,81,83,85,87,89,91,93,95,97,-1,99,-1,101,103,105,107,109,111,113,115,-1,-1,-1,-1,-1,-1,-1,-1,-1,-1,-1,-1,-1,-1,-1,-1,-1,-1,-1,-1,-1,-1,-1,-1,-1,-1,-1,-1,-1,-1,-1,-1,-1,-1,-1,-1,-1,-1,-1,-1,-1,-1,-1,-1,-1,-1,-1,-1,-1,-1,-1,-1,-1,-1,-1,-1],"loss_changes":[8.38153E1,4.367788E1,3.0796413E1,2.2099894E1,1.8301254E1,8.50429E0,2.2323502E1,1.29873905E1,1.676681E1,1.5935638E1,1.4446251E1,8.439672E0,3.893444E0,1.5073036E1,8.526157E0,8.158001E0,1.2472384E1,9.636055E0,1.417887E1,4.2373867E0,1.23787155E1,8.074055E0,1.0423488E1,4.823667E0,7.1287146E0,2.9898834E0,0E0,7.1130295E0,1.6309435E1,3.6320229E0,8.987338E0,5.7949247E0,6.00486E0,8.742791E0,6.7855926E0,8.107594E0,1.0833787E1,6.420313E0,8.48929E0,1.8326812E0,4.86605E0,5.322502E0,5.0533495E0,6.4219437E0,7.3641686E0,8.237089E0,1.1504367E1,2.5607376E0,3.4569683E0,3.7229981E0,0E0,3.5219479E0,0E0,4.706295E0,7.6269703E0,1.1348112E1,1.1975494E1,1.3815284E-2,3.6544356E0,7.403801E0,7.3150706E0,0E0,0E0,0E0,0E0,0E0,0E0,0E0,0E0,0E0,0E0,0E0,0E0,0E0,0E0,0E0,0E0,0E0,0E0,0E0,0E0,0E0,0E0,0E0,0E0,0E0,0E0,0E0,0E0,0E0,0E0,0E0,0E0,0E0,0E0,0E0,0E0,0E0,0E0,0E0,0E0,0E0,0E0,0E0,0E0,0E0,0E0,0E0,0E0,0E0,0E0,0E0,0E0,0E0,0E0,0E0,0E0],"parents":[2147483647,0,0,1,1,2,2,3,3,4,4,5,5,6,6,7,7,8,8,9,9,10,10,11,11,12,12,13,13,14,14,15,15,16,16,17,17,18,18,19,19,20,20,21,21,22,22,23,23,24,24,25,25,27,27,28,28,29,29,30,30,31,31,32,32,33,33,34,34,35,35,36,36,37,37,38,38,39,39,40,40,41,41,42,42,43,43,44,44,45,45,46,46,47,47,48,48,49,49,51,51,53,53,54,54,55,55,56,56,57,57,58,58,59,59,60,60],"right_children":[2,4,6,8,10,12,14,16,18,20,22,24,26,28,30,32,34,36,38,40,42,44,46,48,50,52,-1,54,56,58,60,62,64,66,68,70,72,74,76,78,80,82,84,86,88,90,92,94,96,98,-1,100,-1,102,104,106,108,110,112,114,116,-1,-1,-1,-1,-1,-1,-1,-1,-1,-1,-1,-1,-1,-1,-1,-1,-1,-1,-1,-1,-1,-1,-1,-1,-1,-1,-1,-1,-1,-1,-1,-1,-1,-1,-1,-1,-1,-1,-1,-1,-1,-1,-1,-1,-1,-1,-1,-1,-1,-1,-1,-1,-1,-1,-1,-1],"split_conditions":[-1.6179213E-2,2.4348183E-1,-1.3959699E0,5.4492943E-2,-8.3002657E-1,2.1799444E-1,6.7972076E-1,9.334144E-1,-9.961237E-2,-1.2434087E0,-2.9027072E-1,-8.51996E-2,1.4659512E0,-6.0335875E-1,-5.0072384E-1,-2.299281E-1,3.3994278E-1,-9.051686E-2,-4.5278993E-1,-1.2182366E0,2.7539623E-1,1.6536024E-1,-8.0551213E-1,4.490266E-2,9.5616144E-1,8.881026E-1,-1.550685E-1,1.1266801E0,-1.292709E-1,-8.6527E-1,1.0353464E0,-6.236481E-1,-3.6146006E-1,-6.47839E-1,2.8510675E0,-6.574363E-2,8.819783E-1,1.1266801E0,4.4219717E-1,1.7542616E0,1.6676898E0,-6.830344E-1,5.895867E-1,-5.270258E-1,-3.8792202E-1,-5.968488E-1,5.498579E-1,1.7137885E0,-1.4962159E0,-1.2059228E0,2.769198E-1,-9.333595E-1,-1.3415894E-1,-7.987519E-1,-4.5851853E-1,1.2197699E-1,-1.0872498E0,4.4940308E-2,9.314959E-1,1.5087397E0,-1.6702968E-1,-8.405238E-2,-9.802971E-3,4.7260776E-2,-1.4212976E-1,3.5873896E-3,2.043405E-1,-9.6134946E-2,2.898732E-1,5.0570823E-2,1.5246381E-1,4.441758E-3,1.0571339E-1,-1.2247721E-1,1.63625E-1,1.4588488E-2,2.780601E-1,-1.962192E-1,1.08530976E-1,-9.730195E-2,2.4696434E-1,8.655769E-2,2.4573256E-1,1.1831286E-3,1.9699612E-1,1.512036E-1,8.207456E-2,1.2764177E-1,-2.8880669E-2,2.5606853E-1,2.9294977E-2,-3.3334147E-2,9.440813E-2,2.7311528E-1,5.1623106E-2,2.4765682E-1,-1.8284634E-1,1.7651354E-1,-1.6657643E-1,5.232837E-2,2.823483E-1,-3.714472E-2,-1.3101888E-1,-8.191316E-2,2.7530348E-1,2.371937E-2,-8.488546E-2,-1.3473096E-1,-4.8586354E-2,2.2572853E-1,7.2624944E-2,-1.56719E-1,1.730465E-1,7.59834E-2,3.565836E-1,2.325154E-1,-2.0427334E-1],"split_indices":[21,0,14,15,38,6,48,3,24,9,11,2,8,1,10,21,28,5,6,45,18,49,5,30,16,42,0,4,11,11,32,22,11,7,29,46,5,4,19,0,7,48,15,18,46,15,16,17,0,42,0,20,0,5,22,44,9,2,5,24,4,0,0,0,0,0,0,0,0,0,0,0,0,0,0,0,0,0,0,0,0,0,0,0,0,0,0,0,0,0,0,0,0,0,0,0,0,0,0,0,0,0,0,0,0,0,0,0,0,0,0,0,0,0,0,0,0],"split_type":[0,0,0,0,0,0,0,0,0,0,0,0,0,0,0,0,0,0,0,0,0,0,0,0,0,0,0,0,0,0,0,0,0,0,0,0,0,0,0,0,0,0,0,0,0,0,0,0,0,0,0,0,0,0,0,0,0,0,0,0,0,0,0,0,0,0,0,0,0,0,0,0,0,0,0,0,0,0,0,0,0,0,0,0,0,0,0,0,0,0,0,0,0,0,0,0,0,0,0,0,0,0,0,0,0,0,0,0,0,0,0,0,0,0,0,0,0],"sum_hessian":[4.9807944E3,2.981626E3,1.9991683E3,1.6847542E3,1.2968718E3,1.0640216E2,1.8927661E3,7.113598E2,9.733944E2,2.4702628E2,1.0498456E3,5.9580513E1,4.6821648E1,1.6786875E3,2.1407864E2,5.804373E2,1.3092245E2,7.597443E2,2.1365007E2,2.7789518E1,2.1923676E2,6.5462897E2,3.952166E2,3.0126925E1,2.9453588E1,4.498947E1,1.8321793E0,4.2104434E2,1.2576432E3,3.373848E1,1.8034016E2,4.508152E2,1.2962213E2,8.08756E1,5.0046856E1,2.8314334E2,4.7660098E2,1.1893559E2,9.471448E1,1.4774246E1,1.3015272E1,1.6315285E2,5.60839E1,5.3245135E2,1.2217758E2,5.747427E1,3.3774234E2,2.365884E1,6.4680843E0,2.5867804E1,3.585786E0,4.362209E1,1.3673787E0,4.0032162E2,2.0722712E1,4.9359995E2,7.640432E2,2.900788E0,3.083769E1,1.6087955E2,1.946061E1,1.34091E2,3.1672418E2,1.687539E1,1.1274675E2,3.224486E1,4.863074E1,4.6529278E1,3.5175755E0,1.4080443E2,1.4233891E2,3.4653784E2,1.3006314E2,1.122545E2,6.6810923E0,8.3001755E1,1.1712725E1,1.3392141E1,1.382105E0,7.125376E0,5.889896E0,2.3500114E1,1.3965274E2,4.0261078E1,1.5822822E1,1.9215744E2,3.402939E2,3.887791E1,8.329967E1,2.6280092E1,3.1194176E1,2.543071E2,8.3435265E1,1.648954E1,7.1693006E0,1.3613396E0,5.106745E0,2.3979948E0,2.3469809E1,7.7739253E0,3.5848167E1,5.699546E1,3.4332617E2,1.2857707E1,7.865005E0,3.827808E2,1.1081914E2,1.9512236E2,5.6892084E2,1.4082801E0,1.4925079E0,2.8291042E1,2.5466492E0,1.5280362E2,8.075935E0,3.441163E0,1.6019445E1],"tree_param":{"num_deleted":"0","num_feature":"50","num_nodes":"117","size_leaf_vector":"1"}},{"base_weights":[-5.754905E-2,-4.3645298E-1,1.328143E-1,2.417862E-2,-4.7079423E-1,-4.5880303E-2,2.5099304E-1,-3.5628232E-1,2.3327786E-1,-5.9794325E-1,-3.1849542E-1,5.3373978E-2,-1.4322719E-1,3.0396906E-1,7.9078645E-2,4.6098033E-1,-5.4645103E-1,5.169031E-1,-2.3239623E-1,-4.0114254E-1,-6.1104506E-1,-2.484307E-1,-5.9645045E-1,1.427629E-1,-2.3951633E-1,3.3908576E-2,-2.492304E-1,3.4064123E-1,-4.0915E-2,4.0081838E-1,7.4224127E-3,8.2343984E-1,-1.3601355E-1,2.772116E-1,-6.319646E-1,7.5329024E-1,1.1253372E-1,2.3329611E-1,-4.1901717E-1,-5.151439E-1,5.2846485E-1,-6.1457247E-1,-2.0152794E-1,-3.1227332E-1,6.477924E-2,-6.095077E-1,-2.1085352E-2,-9.51741E-2,2.601082E-1,-1.1500291E-1,-5.765177E-1,-1.626823E-1,2.345833E-1,-5.514695E-1,-1.8215534E-1,3.8076282E-1,1.288478E-1,3.4895474E-1,-2.3451634E-1,2.379141E-1,9.544405E-1,7.594868E-2,-3.6973184E-1,4.3074846E-2,3.4030938E-1,-1.15609095E-1,2.2234096E-1,-1.9946818E-1,3.5492428E-2,3.0926496E-1,1.2605335E-1,2.4351202E-1,-7.469162E-2,8.6687855E-2,-1.5518284E-1,1.3781172E-1,-1.6527468E-1,3.9407697E-1,-1.4110501E-1,-1.9021384E-1,-1.6817172E-1,-1.6761033E-1,2.9728422E-1,-3.9467297E-2,-1.2197727E-1,-1.0602263E-1,7.636501E-2,3.4061804E-2,-1.8496194E-1,1.561098E-1,-1.2959583E-1,5.9216887E-2,-9.513864E-2,1.1424714E-1,-2.5331735E-4,-1.1229128E-1,3.0217245E-2,-1.8695304E-1,1.3321339E-1,2.587281E-2,-1.3912882E-1,9.2304006E-2,-1.3048856E-1,-1.9228284E-1,1.3236223E-1,3.497516E-1,-6.010373E-2,-1.8453987E-2,1.19871974E-1,1.298288E-1,-2.299438E-2,1.6028197E-1,-1.0327948E-1,-2.7210112E-3,-1.8444984E-1,-2.6932683E-2,1.6340871E-1,3.272732E-1,-1.3228834E-1,-6.860533E-2,5.344447E-2,-1.9108823E-2,-1.8547726E-1],"categories":[],"categories_nodes":[],"categories_segments":[],"categories_sizes":[],"default_left":[0,0,0,0,0,0,0,0,0,0,0,0,0,0,0,0,0,0,0,0,0,0,0,0,0,0,0,0,0,0,0,0,0,0,0,0,0,0,0,0,0,0,0,0,0,0,0,0,0,0,0,0,0,0,0,0,0,0,0,0,0,0,0,0,0,0,0,0,0,0,0,0,0,0,0,0,0,0,0,0,0,0,0,0,0,0,0,0,0,0,0,0,0,0,0,0,0,0,0,0,0,0,0,0,0,0,0,0,0,0,0,0,0,0,0,0,0,0,0,0,0,0,0],"id":8,"left_children":[1,3,5,7,9,11,13,15,17,19,21,23,25,27,29,31,33,35,37,39,41,43,45,47,49,51,53,55,57,59,61,63,-1,65,67,69,71,-1,73,75,77,79,81,83,85,87,89,91,93,95,97,99,101,103,105,107,109,111,113,115,117,119,121,-1,-1,-1,-1,-1,-1,-1,-1,-1,-1,-1,-1,-1,-1,-1,-1,-1,-1,-1,-1,-1,-1,-1,-1,-1,-1,-1,-1,-1,-1,-1,-1,-1,-1,-1,-1,-1,-1,-1,-1,-1,-1,-1,-1,-1,-1,-1,-1,-1,-1,-1,-1,-1,-1,-1,-1,-1,-1,-1,-1],"loss_changes":[3.4520172E2,2.5326965E1,6.728685E1,8.991921E0,2.8650787E1,1.2268871E1,1.7441078E1,6.4861984E0,9.744724E0,1.8449097E0,1.3090965E1,1.650408E1,1.2043143E1,1.8550415E1,1.0442898E1,3.062593E0,2.4994307E0,4.2738447E0,5.6552267E0,5.942587E0,9.711914E-1,1.0911331E1,1.0099869E0,1.3499421E1,6.121749E0,9.539294E0,8.0308075E0,1.1208847E1,1.0781421E1,7.2143583E0,9.631577E0,1.140521E0,0E0,1.45331E0,8.247795E-1,2.2115211E0,4.75108E0,0E0,1.8547711E0,1.9321966E0,5.5884323E0,4.3441772E-1,3.944692E0,7.661083E0,7.474406E0,7.467041E-1,1.1273986E0,1.046078E1,1.0190071E1,6.1312532E0,2.1594296E0,9.201883E0,5.9867015E0,6.7091045E0,8.318987E0,9.2868805E0,1.330546E1,6.278079E0,8.167039E0,6.5917177E0,3.990118E0,9.856389E0,4.3189836E0,0E0,0E0,0E0,0E0,0E0,0E0,0E0,0E0,0E0,0E0,0E0,0E0,0E0,0E0,0E0,0E0,0E0,0E0,0E0,0E0,0E0,0E0,0E0,0E0,0E0,0E0,0E0,0E0,0E0,0E0,0E0,0E0,0E0,0E0,0E0,0E0,0E0,0E0,0E0,0E0,0E0,0E0,0E0,0E0,0E0,0E0,0E0,0E0,0E0,0E0,0E0,0E0,0E0,0E0,0E0,0E0,0E0,0E0,0E0,0E0],"parents":[2147483647,0,0,1,1,2,2,3,3,4,4,5,5,6,6,7,7,8,8,9,9,10,10,11,11,12,12,13,13,14,14,15,15,16,16,17,17,18,18,19,19,20,20,21,21,22,22,23,23,24,24,25,25,26,26,27,27,28,28,29,29,30,30,31,31,33,33,34,34,35,35,36,36,38,38,39,39,40,40,41,41,42,42,43,43,44,44,45,45,46,46,47,47,48,48,49,49,50,50,51,51,52,52,53,53,54,54,55,55,56,56,57,57,58,58,59,59,60,60,61,61,62,62],"right_children":[2,4,6,8,10,12,14,16,18,20,22,24,26,28,30,32,34,36,38,40,42,44,46,48,50,52,54,56,58,60,62,64,-1,66,68,70,72,-1,74,76,78,80,82,84,86,88,90,92,94,96,98,100,102,104,106,108,110,112,114,116,118,120,122,-1,-1,-1,-1,-1,-1,-1,-1,-1,-1,-1,-1,-1,-1,-1,-1,-1,-1,-1,-1,-1,-1,-1,-1,-1,-1,-1,-1,-1,-1,-1,-1,-1,-1,-1,-1,-1,-1,-1,-1,-1,-1,-1,-1,-1,-1,-1,-1,-1,-1,-1,-1,-1,-1,-1,-1,-1,-1,-1,-1],"split_conditions":[-4.4101575E-1,-1.265717E0,1.2839161E-1,5.342552E-1,-6.7738295E-1,-9.9804424E-2,-8.5158765E-2,-1.0618415E0,1.5781659E0,-7.5873E-2,-1.4834467E-1,8.190533E-1,-4.7539768E-1,1.0319223E0,-6.305135E-1,7.691204E-2,-7.5873E-2,1.6676898E0,-1.3524889E0,9.242148E-1,4.2935357E0,9.1912097E-1,2.9825552E0,-4.6377873E-1,1.9896807E-1,-3.3025852E-1,-7.5606835E-1,3.8512772E-1,-8.081837E-1,8.8647753E-1,-1.5294781E-1,2.8665517E-2,-1.3601355E-1,-5.8757865E-1,1.8979437E0,3.9454606E-1,-9.594396E-1,2.3329611E-1,8.1003106E-1,-9.427761E-1,-6.386294E-1,-7.51049E-1,7.3478466E-1,-2.1436422E-1,-1.6264544E-1,-1.225042E0,-9.617557E-1,-5.436969E-1,4.3265182E-1,-2.0564266E-1,2.1052294E0,1.9296813E-1,1.3200767E0,9.9159074E-1,-1.0314012E0,-1.3959699E0,-5.798891E-1,6.667612E-2,-1.5247903E-2,-2.6668629E-2,-3.3011895E-2,-2.039734E-1,-3.635066E-1,4.3074846E-2,3.4030938E-1,-1.15609095E-1,2.2234096E-1,-1.9946818E-1,3.5492428E-2,3.0926496E-1,1.2605335E-1,2.4351202E-1,-7.469162E-2,8.6687855E-2,-1.5518284E-1,1.3781172E-1,-1.6527468E-1,3.9407697E-1,-1.4110501E-1,-1.9021384E-1,-1.6817172E-1,-1.6761033E-1,2.9728422E-1,-3.9467297E-2,-1.2197727E-1,-1.0602263E-1,7.636501E-2,3.4061804E-2,-1.8496194E-1,1.561098E-1,-1.2959583E-1,5.9216887E-2,-9.513864E-2,1.1424714E-1,-2.5331735E-4,-1.1229128E-1,3.0217245E-2,-1.8695304E-1,1.3321339E-1,2.587281E-2,-1.3912882E-1,9.2304006E-2,-1.3048856E-1,-1.9228284E-1,1.3236223E-1,3.497516E-1,-6.010373E-2,-1.8453987E-2,1.19871974E-1,1.298288E-1,-2.299438E-2,1.6028197E-1,-1.0327948E-1,-2.7210112E-3,-1.8444984E-1,-2.6932683E-2,1.6340871E-1,3.272732E-1,-1.3228834E-1,-6.860533E-2,5.344447E-2,-1.9108823E-2,-1.8547726E-1],"split_indices":[13,9,21,7,21,16,16,31,1,16,23,5,3,5,7,11,16,7,44,4,48,20,27,36,23,49,41,48,12,16,43,16,0,22,18,6,39,0,7,3,23,21,4,30,29,17,0,22,3,43,24,6,32,14,35,14,26,36,10,15,22,2,17,0,0,0,0,0,0,0,0,0,0,0,0,0,0,0,0,0,0,0,0,0,0,0,0,0,0,0,0,0,0,0,0,0,0,0,0,0,0,0,0,0,0,0,0,0,0,0,0,0,0,0,0,0,0,0,0,0,0,0,0],"split_type":[0,0,0,0,0,0,0,0,0,0,0,0,0,0,0,0,0,0,0,0,0,0,0,0,0,0,0,0,0,0,0,0,0,0,0,0,0,0,0,0,0,0,0,0,0,0,0,0,0,0,0,0,0,0,0,0,0,0,0,0,0,0,0,0,0,0,0,0,0,0,0,0,0,0,0,0,0,0,0,0,0,0,0,0,0,0,0,0,0,0,0,0,0,0,0,0,0,0,0,0,0,0,0,0,0,0,0,0,0,0,0,0,0,0,0,0,0,0,0,0,0,0,0],"sum_hessian":[4.784062E3,1.5993612E3,3.184701E3,1.1098429E2,1.4883768E3,1.2680029E3,1.916698E3,3.9113136E1,7.1871155E1,8.0956934E2,6.7880756E2,6.2807416E2,6.399288E2,1.4646064E3,4.520916E2,7.1144137E0,3.1998724E1,4.459807E1,2.7273083E1,5.2505764E1,7.5706354E2,5.4365985E2,1.3514772E2,4.8160336E2,1.4647081E2,2.3983485E2,4.000939E2,1.3238512E3,1.4075522E2,8.1510796E1,3.705808E2,5.166002E0,1.948412E0,2.7988274E0,2.9199896E1,2.7600458E1,1.6997612E1,3.7593427E0,2.351374E1,4.7167305E1,5.3384595E0,7.5010187E2,6.9617E0,4.5160968E2,9.205013E1,1.3209073E2,3.05698E0,1.5912997E2,3.224734E2,1.0793342E2,3.85374E1,1.212458E2,1.1858905E2,7.135369E1,3.287402E2,1.1123354E3,2.1151576E2,4.6437683E1,9.431753E1,6.408378E1,1.7427021E1,3.1427747E2,5.6303364E1,2.0799184E0,3.0860834E0,1.2223761E0,1.5764512E0,2.8081215E1,1.1186813E0,1.391225E1,1.3688209E1,5.3687634E0,1.1628848E1,2.6291752E0,2.0884565E1,1.2507887E0,4.5916515E1,2.8125153E0,2.5259445E0,5.433981E2,2.0670381E2,5.766101E0,1.195599E0,1.5569244E2,2.9591727E2,2.846375E1,6.3586384E1,1.1264151E0,1.3096432E2,1.2040191E0,1.8529608E0,6.869377E1,9.04362E1,2.201661E2,1.0230728E2,4.868252E1,5.9250893E1,3.7224895E1,1.3125044E0,6.676221E1,5.4483593E1,1.0740384E2,1.1185207E1,6.577913E1,5.574561E0,3.5370564E0,3.2520316E2,4.528608E1,1.0670493E3,8.487912E1,1.2663665E2,3.682306E1,9.614623E0,5.9858242E1,3.4459286E1,3.1328018E1,3.2755756E1,1.6073269E1,1.3537526E0,7.8638054E1,2.356394E2,2.5795254E1,3.0508112E1],"tree_param":{"num_deleted":"0","num_feature":"50","num_nodes":"123","size_leaf_vector":"1"}},{"base_weights":[2.4404693E-2,1.4945811E-1,-5.7008643E-2,3.000952E-1,8.456112E-2,-2.3394771E-1,-2.5543518E-4,3.714123E-1,1.0817611E-1,1.6828353E-2,2.5309655E-1,1.1881459E-2,-3.455634E-1,-4.112862E-1,1.9953607E-2,-2.83839E-1,3.9100522E-1,-2.9880264E-1,1.970485E-1,-8.6474024E-2,1.09330356E-1,2.9957646E-1,-1.3850695E-1,-8.056812E-2,3.5466322E-1,-3.5503748E-1,8.0570644E-1,-4.459953E-1,3.4628943E-1,1.4390682E-1,-3.7729405E-2,-5.14968E-1,1.6174379E-1,5.436093E-1,2.9570305E-1,-4.2684415E-1,1.8909888E-1,6.7960304E-1,6.705029E-2,-1.4205217E-1,4.3199408E-1,5.2122872E-2,3.349454E-1,-1.2726627E-1,3.4418315E-1,-5.2158624E-1,2.433531E-1,1.4455317E-1,-2.8439045E-1,-3.6177926E-2,6.8018824E-1,-3.6899793E-1,4.049637E-1,3.240453E-1,1.55512495E-2,-5.0878036E-1,7.410765E-2,2.2904924E-1,-1.2137016E-1,7.751888E-2,3.5380188E-1,-2.0430295E-1,1.5515058E-2,-2.0085782E-1,7.8074135E-2,1.0534804E-1,2.3628516E-1,5.6132514E-2,1.6831419E-1,-1.8564744E-1,3.592602E-2,2.404593E-1,-1.551511E-1,-8.159112E-2,6.1950948E-2,-5.4549742E-2,1.1458316E-1,-1.5195677E-1,1.7516251E-1,8.6887434E-2,-1.2155005E-2,3.5883345E-2,2.542405E-1,1.6136758E-1,-1.1669069E-1,1.11465156E-1,-1.15537174E-1,-1.8772523E-1,5.8834217E-2,-2.4764946E-2,2.2658563E-1,8.537932E-2,-1.01166144E-1,-1.03038594E-1,9.810476E-2,1.490116E-1,-1.3348119E-1,2.6342294E-1,-3.1194469E-2,-1.18137635E-1,-5.579313E-3,2.924038E-1,-1.0495027E-1,-1.7354062E-1,-7.631486E-2,1.9662602E-1,-1.637846E-1,1.5459282E-2,1.610358E-1,1.5629813E-1,5.2311923E-2,2.892076E-2,-8.2754046E-2,1.2099274E-1,-2.8481286E-3],"categories":[],"categories_nodes":[],"categories_segments":[],"categories_sizes":[],"default_left":[0,0,0,0,0,0,0,0,0,0,0,0,0,0,0,0,0,0,0,0,0,0,0,0,0,0,0,0,0,0,0,0,0,0,0,0,0,0,0,0,0,0,0,0,0,0,0,0,0,0,0,0,0,0,0,0,0,0,0,0,0,0,0,0,0,0,0,0,0,0,0,0,0,0,0,0,0,0,0,0,0,0,0,0,0,0,0,0,0,0,0,0,0,0,0,0,0,0,0,0,0,0,0,0,0,0,0,0,0,0,0,0,0,0,0],"id":9,"left_children":[1,3,5,7,9,11,13,15,17,19,21,23,25,27,29,31,33,35,37,39,41,43,45,47,49,51,53,55,57,59,61,63,-1,65,67,69,-1,71,73,75,77,79,81,83,85,87,89,91,93,95,97,99,101,-1,-1,103,105,-1,-1,107,109,111,113,-1,-1,-1,-1,-1,-1,-1,-1,-1,-1,-1,-1,-1,-1,-1,-1,-1,-1,-1,-1,-1,-1,-1,-1,-1,-1,-1,-1,-1,-1,-1,-1,-1,-1,-1,-1,-1,-1,-1,-1,-1,-1,-1,-1,-1,-1,-1,-1,-1,-1,-1,-1],"loss_changes":[5.005902E1,1.8927757E1,2.9907604E1,7.9444237E0,1.5479508E1,1.9850079E1,1.8747814E1,5.5660553E0,5.826383E0,9.265268E0,7.117899E0,7.216566E0,5.7120857E0,2.9356098E0,1.5386772E1,2.7344356E0,5.8456E0,3.7164402E0,8.20243E0,1.3263302E1,6.5839596E0,6.6667747E0,6.260916E0,8.275422E0,6.178074E0,5.3918533E0,8.4736633E-1,3.354515E0,1.9367692E0,9.495216E0,1.3030597E1,1.4437287E0,0E0,7.1228905E0,7.283716E0,2.8091764E0,0E0,4.470236E0,5.005516E0,8.710603E0,6.653884E0,9.014845E0,1.1296068E1,6.0653653E0,6.4342957E0,1.7114148E0,3.679695E0,5.894043E0,3.5260906E0,5.2150526E0,4.19392E0,4.212509E0,4.378536E0,0E0,0E0,1.4618683E0,4.615991E0,0E0,0E0,6.184193E0,4.8268967E0,7.6823683E0,1.080766E1,0E0,0E0,0E0,0E0,0E0,0E0,0E0,0E0,0E0,0E0,0E0,0E0,0E0,0E0,0E0,0E0,0E0,0E0,0E0,0E0,0E0,0E0,0E0,0E0,0E0,0E0,0E0,0E0,0E0,0E0,0E0,0E0,0E0,0E0,0E0,0E0,0E0,0E0,0E0,0E0,0E0,0E0,0E0,0E0,0E0,0E0,0E0,0E0,0E0,0E0,0E0,0E0],"parents":[2147483647,0,0,1,1,2,2,3,3,4,4,5,5,6,6,7,7,8,8,9,9,10,10,11,11,12,12,13,13,14,14,15,15,16,16,17,17,18,18,19,19,20,20,21,21,22,22,23,23,24,24,25,25,26,26,27,27,28,28,29,29,30,30,31,31,33,33,34,34,35,35,37,37,38,38,39,39,40,40,41,41,42,42,43,43,44,44,45,45,46,46,47,47,48,48,49,49,50,50,51,51,52,52,55,55,56,56,59,59,60,60,61,61,62,62],"right_children":[2,4,6,8,10,12,14,16,18,20,22,24,26,28,30,32,34,36,38,40,42,44,46,48,50,52,54,56,58,60,62,64,-1,66,68,70,-1,72,74,76,78,80,82,84,86,88,90,92,94,96,98,100,102,-1,-1,104,106,-1,-1,108,110,112,114,-1,-1,-1,-1,-1,-1,-1,-1,-1,-1,-1,-1,-1,-1,-1,-1,-1,-1,-1,-1,-1,-1,-1,-1,-1,-1,-1,-1,-1,-1,-1,-1,-1,-1,-1,-1,-1,-1,-1,-1,-1,-1,-1,-1,-1,-1,-1,-1,-1,-1,-1,-1],"split_conditions":[-4.2310578E-1,-4.4421282E-1,-3.694583E-1,1.2542929E-1,-1.5796389E-1,-2.5200698E-1,-1.9504439E0,-2.1482942E0,-1.0013247E0,6.422738E-2,1.0068595E0,8.476076E-1,1.7622112E0,1.8609098E0,-6.236481E-1,9.9400413E-1,-1.8491487E-1,-4.5543653E-1,-8.335154E-1,4.1843036E-1,1.5229216E0,-7.5203013E-1,2.532541E-1,-5.267099E-1,-6.89724E-1,1.2496659E0,-5.5760515E-1,1.0804477E0,-7.26152E-2,4.7828582E-1,-6.3706756E-1,-1.2470057E-1,1.6174379E-1,2.526307E-1,1.2121801E0,1.3121806E-1,1.8909888E-1,1.4657397E0,-7.916964E-1,1.151963E0,-8.9402986E-1,-3.9599948E-2,2.734057E-1,-1.1380111E0,1.5470269E0,4.017401E-1,6.179524E-2,5.326488E-1,6.3793397E-1,-4.420135E-1,4.4293216E-1,1.2853439E0,-7.589322E-1,3.240453E-1,1.55512495E-2,1.3716449E-1,-1.2299753E-1,2.2904924E-1,-1.2137016E-1,1.7914473E0,1.146503E0,-1.6918327E-1,-6.3249373E-1,-2.0085782E-1,7.8074135E-2,1.0534804E-1,2.3628516E-1,5.6132514E-2,1.6831419E-1,-1.8564744E-1,3.592602E-2,2.404593E-1,-1.551511E-1,-8.159112E-2,6.1950948E-2,-5.4549742E-2,1.1458316E-1,-1.5195677E-1,1.7516251E-1,8.6887434E-2,-1.2155005E-2,3.5883345E-2,2.542405E-1,1.6136758E-1,-1.1669069E-1,1.11465156E-1,-1.15537174E-1,-1.8772523E-1,5.8834217E-2,-2.4764946E-2,2.2658563E-1,8.537932E-2,-1.01166144E-1,-1.03038594E-1,9.810476E-2,1.490116E-1,-1.3348119E-1,2.6342294E-1,-3.1194469E-2,-1.18137635E-1,-5.579313E-3,2.924038E-1,-1.0495027E-1,-1.7354062E-1,-7.631486E-2,1.9662602E-1,-1.637846E-1,1.5459282E-2,1.610358E-1,1.5629813E-1,5.2311923E-2,2.892076E-2,-8.2754046E-2,1.2099274E-1,-2.8481286E-3],"split_indices":[21,2,10,22,32,8,5,5,14,5,3,24,44,33,22,12,34,21,32,35,48,40,24,49,16,4,10,7,6,35,44,24,0,4,34,41,0,14,24,39,14,12,20,9,0,4,22,43,9,3,38,24,47,0,0,49,19,0,0,33,35,21,23,0,0,0,0,0,0,0,0,0,0,0,0,0,0,0,0,0,0,0,0,0,0,0,0,0,0,0,0,0,0,0,0,0,0,0,0,0,0,0,0,0,0,0,0,0,0,0,0,0,0,0,0],"split_type":[0,0,0,0,0,0,0,0,0,0,0,0,0,0,0,0,0,0,0,0,0,0,0,0,0,0,0,0,0,0,0,0,0,0,0,0,0,0,0,0,0,0,0,0,0,0,0,0,0,0,0,0,0,0,0,0,0,0,0,0,0,0,0,0,0,0,0,0,0,0,0,0,0,0,0,0,0,0,0,0,0,0,0,0,0,0,0,0,0,0,0,0,0,0,0,0,0,0,0,0,0,0,0,0,0,0,0,0,0,0,0,0,0,0,0],"sum_hessian":[4.9150615E3,1.9377626E3,2.977299E3,5.8236615E2,1.3553964E3,7.222921E2,2.255007E3,4.2390704E2,1.5845909E2,9.676193E2,3.8777707E2,2.2582188E2,4.9647025E2,1.0476875E2,2.1502383E3,1.1915825E1,4.1199124E2,2.7977566E1,1.3048152E2,4.57154E2,5.1046536E2,3.4684464E2,4.0932426E1,1.7845644E2,4.736544E1,4.9310397E2,3.366265E0,1.0057222E2,4.196532E0,6.823859E2,1.4678524E3,9.595321E0,2.3205042E0,1.5657268E2,2.5541855E2,2.5064137E1,2.9134297E0,2.6794035E1,1.0368749E2,4.135489E2,4.3605118E1,4.081938E2,1.0227155E2,3.2641743E1,3.142029E2,2.0250929E1,2.0681498E1,8.4935814E1,9.352062E1,2.1927309E1,2.543813E1,4.8471472E2,8.3892355E0,2.1505513E0,1.2157137E0,8.975863E1,1.0813589E1,2.6867971E0,1.5097346E0,5.1945593E2,1.6292996E2,3.54857E2,1.1129954E3,8.113943E0,1.4813772E0,8.889795E1,6.7674736E1,1.8245303E2,7.2965515E1,1.8451355E1,6.6127806E0,2.4616364E1,2.1776717E0,2.994314E1,7.3744354E1,3.8497562E2,2.8573269E1,5.748494E0,3.7856625E1,1.1394481E2,2.94249E2,7.288332E1,2.9388233E1,8.918535E0,2.3723207E1,3.033116E2,1.0891278E1,1.7796171E1,2.4547563E0,1.3149255E1,7.532242E0,6.612385E1,1.8811968E1,8.568075E1,7.839873E0,9.42507E0,1.250224E1,2.0216633E1,5.2214975E0,4.5256744E2,3.2147305E1,4.6147485E0,3.7744873E0,6.945782E1,2.030081E1,5.5517263E0,5.2618628E0,4.92689E2,2.6766937E1,8.335557E1,7.9574394E1,6.813439E1,2.867226E2,6.651213E1,1.0464833E3],"tree_param":{"num_deleted":"0","num_feature":"50","num_nodes":"115","size_leaf_vector":"1"}},{"base_weights":[2.3711927E-2,1.08364575E-1,-1.0541063E-1,-2.0280822E-1,1.377472E-1,-1.9538882E-1,6.468515E-3,-2.8110027E-1,2.2088741E-1,1.718812E-1,-1.4192522E-1,3.134065E-1,-2.2185312E-1,-2.8293977E-2,5.159078E-1,-3.7791437E-1,2.4028285E-1,-8.961324E-2,9.2029834E-1,2.668328E-1,1.01039626E-1,-2.3850386E-1,2.4310035E-1,5.539574E-1,-3.9303064E-1,-2.5487137E-1,1.18193805E-1,-1.68205E-1,5.0124727E-2,6.8199927E-1,-3.5626283E-1,1.6606915E-1,-4.1679633E-1,5.7910985E-1,-3.03663E-1,4.049751E-1,-4.7041082E-1,2.0916228E-1,4.6024016E-1,6.826281E-2,3.285255E-1,2.648658E-1,4.0070593E-2,-3.0755275E-1,3.916073E-1,4.7998354E-1,-1.9705853E-1,7.042931E-1,-9.271796E-3,-5.7368696E-1,1.6713493E-1,3.0427784E-1,-2.730983E-1,3.1650525E-1,-4.3660492E-1,-2.3078854E-1,2.1689874E-1,1.0239431E-1,-2.537001E-1,8.161465E-1,-3.2386613E-1,-5.125378E-1,9.621013E-2,2.9703513E-1,-1.1646381E-1,-1.5550567E-1,-7.2770685E-2,2.710485E-1,-4.8267305E-2,1.5749952E-1,-1.6426417E-1,-1.2039858E-1,2.8208733E-1,1.9201405E-2,-1.8997875E-1,2.253621E-1,-1.0591434E-1,5.804815E-2,-5.7728767E-2,2.4170667E-1,8.795604E-2,5.3683E-2,1.6995767E-1,8.257176E-3,1.7805253E-1,-9.889156E-2,2.7989465E-1,-1.8550742E-1,2.4286333E-1,-1.3145824E-1,1.8833277E-1,-1.14441894E-1,2.7847683E-1,2.3279172E-1,-8.546774E-2,-1.8548915E-1,1.5012541E-1,1.0856666E-2,-1.9281746E-1,2.530353E-1,-4.3229765E-4,-9.577277E-2,-2.9546615E-2,1.2800539E-1,-1.7728396E-1,-1.8518284E-1,1.3883051E-1,-7.506696E-2,3.512847E-1,3.3376485E-1,-2.2118841E-3,-1.35675175E-2,8.179745E-2,-1.1785812E-1,1.4732164E-1,-1.3134347E-1,2.636028E-1,1.0500309E-1,-1.7621598E-1,1.5252193E-2,-1.8394211E-1],"categories":[],"categories_nodes":[],"categories_segments":[],"categories_sizes":[],"default_left":[0,0,0,0,0,0,0,0,0,0,0,0,0,0,0,0,0,0,0,0,0,0,0,0,0,0,0,0,0,0,0,0,0,0,0,0,0,0,0,0,0,0,0,0,0,0,0,0,0,0,0,0,0,0,0,0,0,0,0,0,0,0,0,0,0,0,0,0,0,0,0,0,0,0,0,0,0,0,0,0,0,0,0,0,0,0,0,0,0,0,0,0,0,0,0,0,0,0,0,0,0,0,0,0,0,0,0,0,0,0,0,0,0,0,0,0,0,0,0,0,0],"id":10,"left_children":[1,3,5,7,9,11,13,15,17,19,21,23,25,27,29,31,33,35,37,39,41,43,45,47,49,51,53,55,57,59,61,63,65,67,69,71,73,75,-1,77,79,81,83,85,87,89,91,93,95,97,-1,99,101,103,105,107,109,111,113,115,117,119,-1,-1,-1,-1,-1,-1,-1,-1,-1,-1,-1,-1,-1,-1,-1,-1,-1,-1,-1,-1,-1,-1,-1,-1,-1,-1,-1,-1,-1,-1,-1,-1,-1,-1,-1,-1,-1,-1,-1,-1,-1,-1,-1,-1,-1,-1,-1,-1,-1,-1,-1,-1,-1,-1,-1,-1,-1,-1,-1],"loss_changes":[5.3578648E1,2.7096539E1,1.954194E1,8.548723E0,2.585411E1,1.4556385E1,1.535493E1,1.1012857E1,8.869372E0,1.6196472E1,1.1022421E1,9.327715E0,1.15193405E1,8.915666E0,8.266012E0,3.9373035E0,6.533829E0,5.639627E0,5.14816E0,1.2594818E1,1.3802329E1,1.0398662E1,6.311466E0,3.4278793E0,2.7574782E0,9.592224E0,1.017773E1,7.083336E0,8.300165E0,6.5884056E0,1.1711762E0,6.283178E0,2.8992653E0,5.3304596E0,3.0959725E0,6.0417147E0,1.5034635E0,2.3868911E0,0E0,8.048817E0,1.3010002E1,9.615652E0,6.990063E0,6.156088E0,1.053412E1,5.574771E0,4.8305135E0,2.4833717E0,3.2583199E0,5.464611E-1,0E0,4.9343567E0,7.2531967E0,7.031073E0,4.258296E0,7.144788E0,8.306177E0,1.1203422E1,8.14912E0,3.6494198E0,1.3120832E0,4.912107E-1,0E0,0E0,0E0,0E0,0E0,0E0,0E0,0E0,0E0,0E0,0E0,0E0,0E0,0E0,0E0,0E0,0E0,0E0,0E0,0E0,0E0,0E0,0E0,0E0,0E0,0E0,0E0,0E0,0E0,0E0,0E0,0E0,0E0,0E0,0E0,0E0,0E0,0E0,0E0,0E0,0E0,0E0,0E0,0E0,0E0,0E0,0E0,0E0,0E0,0E0,0E0,0E0,0E0,0E0,0E0,0E0,0E0,0E0,0E0],"parents":[2147483647,0,0,1,1,2,2,3,3,4,4,5,5,6,6,7,7,8,8,9,9,10,10,11,11,12,12,13,13,14,14,15,15,16,16,17,17,18,18,19,19,20,20,21,21,22,22,23,23,24,24,25,25,26,26,27,27,28,28,29,29,30,30,31,31,32,32,33,33,34,34,35,35,36,36,37,37,39,39,40,40,41,41,42,42,43,43,44,44,45,45,46,46,47,47,48,48,49,49,51,51,52,52,53,53,54,54,55,55,56,56,57,57,58,58,59,59,60,60,61,61],"right_children":[2,4,6,8,10,12,14,16,18,20,22,24,26,28,30,32,34,36,38,40,42,44,46,48,50,52,54,56,58,60,62,64,66,68,70,72,74,76,-1,78,80,82,84,86,88,90,92,94,96,98,-1,100,102,104,106,108,110,112,114,116,118,120,-1,-1,-1,-1,-1,-1,-1,-1,-1,-1,-1,-1,-1,-1,-1,-1,-1,-1,-1,-1,-1,-1,-1,-1,-1,-1,-1,-1,-1,-1,-1,-1,-1,-1,-1,-1,-1,-1,-1,-1,-1,-1,-1,-1,-1,-1,-1,-1,-1,-1,-1,-1,-1,-1,-1,-1,-1,-1,-1],"split_conditions":[-2.1937694E-2,-1.1764286E0,-1.442845E-2,-1.7288265E-1,7.184523E-1,-1.3633764E0,1.1495668E0,9.3076074E-1,5.696162E-1,-1.17839955E-1,4.6112192E-1,-1.0294969E-1,1.0731975E0,-6.076643E-1,1.8680957E-1,-1.05676E0,-3.9349598E-1,-2.2118169E-1,-4.0087628E-1,-5.8723843E-1,-7.498804E-1,9.194938E-1,2.5030848E-1,1.0436188E-1,-4.303966E-2,-1.8754953E0,3.685567E-1,3.6160547E-1,3.6120117E-1,3.2163846E-1,7.2281295E-1,-6.412203E-1,6.5315926E-1,3.9989477E-1,-4.342403E-1,1.3077721E-1,-6.89724E-1,7.816082E-3,4.6024016E-1,-4.5239782E-1,-1.1951221E0,-8.8141066E-1,2.155275E0,1.4282465E0,-5.2362597E-1,-8.160619E-1,1.4067365E0,1.981956E0,8.084623E-1,-7.089138E-1,1.6713493E-1,1.681619E-1,7.996774E-1,6.4553255E-1,1.1142926E0,1.8323861E0,-8.1920844E-1,-3.4363607E-1,1.8367945E0,-1.8069178E0,-5.278847E-1,-1.1288111E0,9.621013E-2,2.9703513E-1,-1.1646381E-1,-1.5550567E-1,-7.2770685E-2,2.710485E-1,-4.8267305E-2,1.5749952E-1,-1.6426417E-1,-1.2039858E-1,2.8208733E-1,1.9201405E-2,-1.8997875E-1,2.253621E-1,-1.0591434E-1,5.804815E-2,-5.7728767E-2,2.4170667E-1,8.795604E-2,5.3683E-2,1.6995767E-1,8.257176E-3,1.7805253E-1,-9.889156E-2,2.7989465E-1,-1.8550742E-1,2.4286333E-1,-1.3145824E-1,1.8833277E-1,-1.14441894E-1,2.7847683E-1,2.3279172E-1,-8.546774E-2,-1.8548915E-1,1.5012541E-1,1.0856666E-2,-1.9281746E-1,2.530353E-1,-4.3229765E-4,-9.577277E-2,-2.9546615E-2,1.2800539E-1,-1.7728396E-1,-1.8518284E-1,1.3883051E-1,-7.506696E-2,3.512847E-1,3.3376485E-1,-2.2118841E-3,-1.35675175E-2,8.179745E-2,-1.1785812E-1,1.4732164E-1,-1.3134347E-1,2.636028E-1,1.0500309E-1,-1.7621598E-1,1.5252193E-2,-1.8394211E-1],"split_indices":[11,7,16,19,13,14,3,12,38,31,22,31,5,22,4,19,24,21,25,22,13,3,46,22,27,4,17,3,45,22,9,5,29,48,4,20,16,12,0,37,46,13,3,4,45,32,17,19,0,2,0,21,0,15,48,21,38,9,38,8,32,27,0,0,0,0,0,0,0,0,0,0,0,0,0,0,0,0,0,0,0,0,0,0,0,0,0,0,0,0,0,0,0,0,0,0,0,0,0,0,0,0,0,0,0,0,0,0,0,0,0,0,0,0,0,0,0,0,0,0,0],"split_type":[0,0,0,0,0,0,0,0,0,0,0,0,0,0,0,0,0,0,0,0,0,0,0,0,0,0,0,0,0,0,0,0,0,0,0,0,0,0,0,0,0,0,0,0,0,0,0,0,0,0,0,0,0,0,0,0,0,0,0,0,0,0,0,0,0,0,0,0,0,0,0,0,0,0,0,0,0,0,0,0,0,0,0,0,0,0,0,0,0,0,0,0,0,0,0,0,0,0,0,0,0,0,0,0,0,0,0,0,0,0,0,0,0,0,0,0,0,0,0,0,0],"sum_hessian":[4.8996816E3,2.959558E3,1.9401233E3,2.5483717E2,2.704721E3,1.0748969E3,8.6522644E2,2.1537578E2,3.946139E1,2.410861E3,2.9386E2,5.2608974E1,1.0222879E3,8.108417E2,5.4384754E1,1.8187846E2,3.3497307E1,2.793267E1,1.1528722E1,1.028952E3,1.381909E3,2.3523492E2,5.8625065E1,3.9406425E1,1.3202549E1,9.320384E2,9.024954E1,2.9082327E2,5.200184E2,4.5867954E1,8.516801E0,1.1914593E1,1.6996388E2,2.0600492E1,1.2896812E1,1.2123243E1,1.5809427E1,5.9621925E0,5.5665293E0,2.4440231E2,7.845497E2,3.7389484E2,1.0080142E3,2.1246452E2,2.2770397E1,3.8054527E1,2.0570534E1,3.090649E1,8.499934E0,1.1426233E1,1.7763153E0,2.8927681E1,9.031107E2,6.680115E1,2.3448393E1,2.5051292E2,4.031036E1,4.4425278E2,7.576562E1,4.0637012E1,5.2309427E0,7.1167965E0,1.4000045E0,4.475132E0,7.439461E0,1.0612769E2,6.383619E1,1.4168629E1,6.4318643E0,2.6704836E0,1.0226329E1,4.937132E0,7.186111E0,3.8341663E0,1.1975261E1,2.8643825E0,3.0978103E0,1.6526852E2,7.913379E1,5.2594208E1,7.3195544E2,2.922467E2,8.164812E1,9.866951E2,2.1319075E1,2.0946951E2,2.9950004E0,6.5243764E0,1.6246021E1,5.0036726E0,3.3050858E1,1.8242067E1,2.3284676E0,2.9019217E1,1.8872736E0,3.7755122E0,4.724422E0,1.2103052E0,1.0215928E1,9.830848E0,1.9096834E1,7.136779E2,1.8943277E2,6.0040997E1,6.760152E0,1.9787106E1,3.6612868E0,2.4789738E2,2.615531E0,7.2792497E0,3.303111E1,2.3834296E2,2.0590982E2,6.423572E1,1.1529901E1,1.6450808E0,3.8991932E1,1.3782535E0,3.8526893E0,1.153241E0,5.963556E0],"tree_param":{"num_deleted":"0","num_feature":"50","num_nodes":"121","size_leaf_vector":"1"}},{"base_weights":[-5.1181227E-2,-4.0212452E-1,9.6853755E-2,-5.0826156E-1,-2.6361564E-1,2.5952885E-1,1.4631811E-2,2.2922604E-1,-5.5188054E-1,-1.7437585E-1,-4.6553534E-1,3.083282E-1,4.1127253E-2,-5.6864873E-2,1.1265009E-1,-1.5994589E-1,3.2501647E-1,-9.240176E-2,-5.585374E-1,-8.694514E-2,-4.0754062E-1,-4.9651542E-1,1.6782029E-1,-8.597807E-2,3.302623E-1,1.3621767E-1,-4.143981E-1,-8.402025E-3,-2.564847E-1,2.6443258E-1,3.1786487E-2,4.6632317E-1,-3.3575687E-1,3.147435E-1,-1.6329187E-1,-5.9584594E-1,-4.8240596E-1,1.7336398E-2,-3.5903284E-1,-4.4505548E-1,6.291173E-1,-5.2540195E-1,9.787393E-3,9.737967E-1,-1.6189489E-1,-3.729099E-1,1.7297299E-1,1.2851773E-1,3.6628407E-1,2.3071048E-1,-4.273628E-1,4.3550932E-1,-5.185743E-1,-5.605678E-2,2.6907873E-1,6.1649982E-2,-3.5728207E-1,1.08624935E-1,5.770104E-1,1.1363607E-1,-2.5830472E-1,1.649749E-1,-1.758923E-1,1.1570107E-1,-1.6443871E-1,-1.2762739E-1,2.0252027E-1,-1.8043916E-1,-3.531882E-2,-1.0563392E-1,-1.7138407E-1,6.2089443E-2,-6.0045265E-2,2.9827213E-1,-1.2637037E-1,9.039896E-2,-1.5155682E-1,3.6346462E-1,-1.1170316E-1,1.794129E-1,-1.6100779E-1,-1.5740332E-1,1.8977787E-1,4.039158E-1,1.4038848E-2,-1.5543227E-1,2.3759994E-1,-1.427283E-1,1.2029158E-1,-4.602084E-2,7.904192E-2,9.937546E-2,1.9267826E-1,3.3865236E-2,1.501586E-1,2.4428616E-1,-1.7055896E-1,-3.322732E-2,2.166841E-1,1.0273984E-2,-1.9723128E-1,1.0029473E-3,-6.505902E-2,-1.6015925E-1,1.0531057E-1,-8.798979E-2,1.4811808E-1,-1.265113E-1,-3.2728054E-3,1.140235E-2,1.7283654E-1,2.3485477E-1,-1.7920809E-2,5.104971E-2,-1.3447541E-1,-1.9527726E-2,-1.7778894E-1],"categories":[],"categories_nodes":[],"categories_segments":[],"categories_sizes":[],"default_left":[0,0,0,0,0,0,0,0,0,0,0,0,0,0,0,0,0,0,0,0,0,0,0,0,0,0,0,0,0,0,0,0,0,0,0,0,0,0,0,0,0,0,0,0,0,0,0,0,0,0,0,0,0,0,0,0,0,0,0,0,0,0,0,0,0,0,0,0,0,0,0,0,0,0,0,0,0,0,0,0,0,0,0,0,0,0,0,0,0,0,0,0,0,0,0,0,0,0,0,0,0,0,0,0,0,0,0,0,0,0,0,0,0,0,0,0,0],"id":11,"left_children":[1,3,5,7,9,11,13,15,17,19,21,23,25,27,29,-1,31,33,35,37,39,41,43,45,47,49,51,53,55,57,59,61,63,65,-1,67,69,71,73,75,77,79,81,83,-1,85,87,89,91,93,95,97,99,101,103,105,107,109,111,113,115,-1,-1,-1,-1,-1,-1,-1,-1,-1,-1,-1,-1,-1,-1,-1,-1,-1,-1,-1,-1,-1,-1,-1,-1,-1,-1,-1,-1,-1,-1,-1,-1,-1,-1,-1,-1,-1,-1,-1,-1,-1,-1,-1,-1,-1,-1,-1,-1,-1,-1,-1,-1,-1,-1,-1,-1],"loss_changes":[2.397748E2,1.9994919E1,4.341758E1,2.502893E1,1.066016E1,1.1603012E1,1.512595E1,3.381843E0,2.1848755E0,8.424603E0,3.6564903E0,7.7315903E0,8.728284E0,1.2072887E1,1.1164299E1,0E0,3.8590155E0,2.3130386E0,1.7591858E0,8.606108E0,4.670847E0,2.547985E0,5.793928E0,3.6107612E0,6.0860367E0,8.958914E0,3.308937E0,1.3309497E1,7.8398933E0,1.5340147E1,1.4157685E1,3.233705E0,1.3707796E0,2.089299E0,0E0,1.2166443E0,2.603775E0,9.117433E0,7.4916754E0,5.069021E0,2.9927301E0,2.4075508E0,3.7824194E0,1.5519185E0,0E0,4.2934537E0,4.0024815E0,4.963605E0,6.705261E0,4.494058E0,4.711866E0,7.607633E-1,2.438797E0,8.204376E0,9.895808E0,9.271851E0,4.129875E0,6.98659E0,1.3805355E1,1.4839308E1,8.439525E0,0E0,0E0,0E0,0E0,0E0,0E0,0E0,0E0,0E0,0E0,0E0,0E0,0E0,0E0,0E0,0E0,0E0,0E0,0E0,0E0,0E0,0E0,0E0,0E0,0E0,0E0,0E0,0E0,0E0,0E0,0E0,0E0,0E0,0E0,0E0,0E0,0E0,0E0,0E0,0E0,0E0,0E0,0E0,0E0,0E0,0E0,0E0,0E0,0E0,0E0,0E0,0E0,0E0,0E0,0E0,0E0],"parents":[2147483647,0,0,1,1,2,2,3,3,4,4,5,5,6,6,7,7,8,8,9,9,10,10,11,11,12,12,13,13,14,14,16,16,17,17,18,18,19,19,20,20,21,21,22,22,23,23,24,24,25,25,26,26,27,27,28,28,29,29,30,30,31,31,32,32,33,33,35,35,36,36,37,37,38,38,39,39,40,40,41,41,42,42,43,43,45,45,46,46,47,47,48,48,49,49,50,50,51,51,52,52,53,53,54,54,55,55,56,56,57,57,58,58,59,59,60,60],"right_children":[2,4,6,8,10,12,14,16,18,20,22,24,26,28,30,-1,32,34,36,38,40,42,44,46,48,50,52,54,56,58,60,62,64,66,-1,68,70,72,74,76,78,80,82,84,-1,86,88,90,92,94,96,98,100,102,104,106,108,110,112,114,116,-1,-1,-1,-1,-1,-1,-1,-1,-1,-1,-1,-1,-1,-1,-1,-1,-1,-1,-1,-1,-1,-1,-1,-1,-1,-1,-1,-1,-1,-1,-1,-1,-1,-1,-1,-1,-1,-1,-1,-1,-1,-1,-1,-1,-1,-1,-1,-1,-1,-1,-1,-1,-1,-1,-1,-1],"split_conditions":[-4.2310578E-1,-6.680766E-1,-5.9223074E-1,-1.6972584E0,2.8511676E-1,7.764794E-1,1.2839161E-1,5.342552E-1,-1.7049035E0,6.025845E-1,2.1576533E0,-1.3373015E0,1.8827216E-1,1.5868692E-1,-4.7350952E-1,-1.5994589E-1,2.3733473E0,-7.5537795E-1,-7.498804E-1,-4.1309163E-1,3.0728776E0,2.7839808E0,1.6028263E-1,-5.177247E-1,-6.405164E-1,9.5202315E-1,-8.025626E-1,7.655435E-1,-6.9196165E-1,-4.0394494E-1,4.381959E-1,-2.899593E-1,-1.0260545E0,-5.377751E-1,-1.6329187E-1,4.2935357E0,-6.3675547E-1,1.06093414E-1,-1.3896956E0,-1.149758E0,-3.470043E-2,-1.518334E0,-4.6081355E-1,2.2527364E-1,-1.6189489E-1,1.1803082E0,1.10053115E-1,-4.992146E-2,1.2790052E0,2.0666508E-1,-9.721361E-1,9.088213E-2,-5.444118E-1,3.8512772E-1,-8.08556E-1,6.702182E-1,7.8449225E-1,1.2049917E0,6.0686487E-1,1.733102E0,-1.8744625E-1,1.649749E-1,-1.758923E-1,1.1570107E-1,-1.6443871E-1,-1.2762739E-1,2.0252027E-1,-1.8043916E-1,-3.531882E-2,-1.0563392E-1,-1.7138407E-1,6.2089443E-2,-6.0045265E-2,2.9827213E-1,-1.2637037E-1,9.039896E-2,-1.5155682E-1,3.6346462E-1,-1.1170316E-1,1.794129E-1,-1.6100779E-1,-1.5740332E-1,1.8977787E-1,4.039158E-1,1.4038848E-2,-1.5543227E-1,2.3759994E-1,-1.427283E-1,1.2029158E-1,-4.602084E-2,7.904192E-2,9.937546E-2,1.9267826E-1,3.3865236E-2,1.501586E-1,2.4428616E-1,-1.7055896E-1,-3.322732E-2,2.166841E-1,1.0273984E-2,-1.9723128E-1,1.0029473E-3,-6.505902E-2,-1.6015925E-1,1.0531057E-1,-8.798979E-2,1.4811808E-1,-1.265113E-1,-3.2728054E-3,1.140235E-2,1.7283654E-1,2.3485477E-1,-1.7920809E-2,5.104971E-2,-1.3447541E-1,-1.9527726E-2,-1.7778894E-1],"split_indices":[21,21,16,3,41,5,21,7,17,10,22,14,22,25,20,0,7,32,13,23,40,47,18,18,19,3,3,24,3,22,7,32,42,30,0,48,23,5,15,3,9,4,25,12,0,24,21,2,18,17,39,7,9,48,40,15,39,14,15,11,33,0,0,0,0,0,0,0,0,0,0,0,0,0,0,0,0,0,0,0,0,0,0,0,0,0,0,0,0,0,0,0,0,0,0,0,0,0,0,0,0,0,0,0,0,0,0,0,0,0,0,0,0,0,0,0,0],"split_type":[0,0,0,0,0,0,0,0,0,0,0,0,0,0,0,0,0,0,0,0,0,0,0,0,0,0,0,0,0,0,0,0,0,0,0,0,0,0,0,0,0,0,0,0,0,0,0,0,0,0,0,0,0,0,0,0,0,0,0,0,0,0,0,0,0,0,0,0,0,0,0,0,0,0,0,0,0,0,0,0,0,0,0,0,0,0,0,0,0,0,0,0,0,0,0,0,0,0,0,0,0,0,0,0,0,0,0,0,0,0,0,0,0,0,0,0,0],"sum_hessian":[4.613574E3,1.3682285E3,3.245346E3,7.7312573E2,5.951027E2,1.0888712E3,2.1564749E3,4.2935654E1,7.3019006E2,4.139974E2,1.8110533E2,8.8967224E2,1.9919891E2,1.2471766E3,9.0929816E2,4.2829103E0,3.8652744E1,1.0640377E1,7.195497E2,3.020932E2,1.119042E2,1.728658E2,8.239533E0,4.6728073E1,8.4294415E2,1.653775E2,3.382141E1,1.0043797E3,2.4279692E2,3.1526666E2,5.940315E2,3.2085518E1,6.567227E0,5.7570534E0,4.883324E0,4.7832047E2,2.4122925E2,2.1906837E2,8.302483E1,1.0854675E2,3.357439E0,1.6349979E2,9.366016E0,3.6756473E0,4.563886E0,2.1957685E1,2.4770386E1,1.2839862E2,7.1454553E2,1.4213676E2,2.3240747E1,3.345674E0,3.0475735E1,8.578499E2,1.465298E2,5.851174E1,1.8428519E2,2.11293E2,1.03973656E2,4.6378287E2,1.3024863E2,3.0167397E1,1.9181216E0,1.3079879E0,5.259239E0,1.8258233E0,3.93123E0,4.725104E2,5.8100696E0,9.983269E1,1.4139656E2,1.1705544E2,1.0201293E2,2.9899845E0,8.003485E1,7.794161E0,1.00752594E2,1.9901965E0,1.3672427E0,1.1097447E0,1.6239005E2,5.1252785E0,4.240738E0,2.2991421E0,1.3765049E0,2.0017841E1,1.9398429E0,6.15907E0,1.8611317E1,4.152227E1,8.687636E1,6.360105E2,7.8535065E1,9.9920876E1,4.2215885E1,1.8857933E0,2.1354954E1,1.3630295E0,1.9826444E0,6.269592E0,2.4206144E1,6.27163E2,2.3068689E2,1.3060423E1,1.3346938E2,3.2299244E1,2.6212498E1,1.5520158E2,2.9083605E1,1.8450426E2,2.678874E1,7.8400085E1,2.557357E1,4.2202182E2,4.176105E1,8.330178E1,4.6946842E1],"tree_param":{"num_deleted":"0","num_feature":"50","num_nodes":"117","size_leaf_vector":"1"}},{"base_weights":[2.1480346E-2,-1.678139E-1,6.132753E-2,6.515085E-2,-2.3737444E-1,1.3163795E-1,-3.07586E-2,2.4718039E-1,-9.3426496E-2,-2.8692058E-1,-2.872839E-2,8.4398665E-2,2.5213838E-1,-3.8389844E-1,-7.2679883E-3,-4.8486865E-1,3.1948856E-1,-2.684215E-1,3.836311E-1,-3.0002502E-1,6.2710565E-1,9.642436E-2,-3.7272564E-1,-1.6929996E-1,1.11060865E-1,1.9119214E-1,3.9372197E-1,1.7252097E-1,-4.3631232E-1,-1.7900331E-1,4.021367E-2,4.7709864E-2,-1.9634907E-1,9.8449045E-1,2.4123599E-1,-3.1345794E-1,2.4342473E-1,-3.8382888E-1,7.139825E-1,-2.0899862E-1,-4.165367E-1,2.9669744E-1,-8.702649E-2,8.597603E-1,-1.7988063E-2,3.802513E-1,-4.456076E-1,2.3768198E-2,-4.4147265E-1,1.6833569E-1,1.996203E-2,3.789618E-1,5.5398833E-2,4.5404243E-1,-2.8023282E-1,-3.19787E-1,7.868542E-1,-4.651951E-1,3.2178846E-1,1.0488759E-1,-2.4693026E-1,3.052608E-1,1.3883244E-3,6.765125E-3,3.400052E-1,2.6901042E-2,1.6032742E-1,-4.02408E-2,-1.9271415E-1,1.5036987E-1,-1.7493613E-1,2.5731018E-1,-8.4765695E-2,-7.727559E-2,8.894234E-2,-1.3158864E-1,1.092759E-1,-7.141072E-3,2.9213506E-1,-7.097965E-2,1.2425006E-1,-1.17980935E-1,3.352795E-1,-2.7947761E-2,-1.6668782E-1,3.6726877E-2,-2.1066281E-1,-1.5993732E-1,1.2443173E-1,1.3141777E-1,4.0554438E-2,3.4449454E-2,-3.4060907E-2,1.3002586E-1,-3.131833E-2,2.5011187E-3,1.7719163E-1,9.0155184E-2,2.0669822E-1,8.066609E-2,-1.8933024E-1,-1.744524E-1,9.961327E-2,2.7360815E-1,8.687498E-2,-1.4708856E-1,1.22665405E-1,2.4654366E-1,-1.3428514E-1,-7.844757E-2,1.271237E-1,2.2977337E-2,-9.510039E-2,-7.7726096E-2,1.084673E-1,-9.729761E-3,8.092714E-2],"categories":[],"categories_nodes":[],"categories_segments":[],"categories_sizes":[],"default_left":[0,0,0,0,0,0,0,0,0,0,0,0,0,0,0,0,0,0,0,0,0,0,0,0,0,0,0,0,0,0,0,0,0,0,0,0,0,0,0,0,0,0,0,0,0,0,0,0,0,0,0,0,0,0,0,0,0,0,0,0,0,0,0,0,0,0,0,0,0,0,0,0,0,0,0,0,0,0,0,0,0,0,0,0,0,0,0,0,0,0,0,0,0,0,0,0,0,0,0,0,0,0,0,0,0,0,0,0,0,0,0,0,0,0,0,0,0],"id":12,"left_children":[1,3,5,7,9,11,13,15,17,19,21,23,25,27,29,31,33,35,37,39,41,43,45,47,49,51,53,55,57,59,61,-1,-1,63,65,67,-1,69,71,73,75,-1,-1,77,79,81,83,85,87,89,91,93,95,97,99,101,103,105,107,109,111,113,115,-1,-1,-1,-1,-1,-1,-1,-1,-1,-1,-1,-1,-1,-1,-1,-1,-1,-1,-1,-1,-1,-1,-1,-1,-1,-1,-1,-1,-1,-1,-1,-1,-1,-1,-1,-1,-1,-1,-1,-1,-1,-1,-1,-1,-1,-1,-1,-1,-1,-1,-1,-1,-1,-1],"loss_changes":[3.6504623E1,1.3654251E1,2.5887226E1,5.631818E0,6.693928E0,1.2883461E1,1.4361728E1,4.9578953E0,8.8324995E0,6.4621887E0,5.439992E0,1.1044978E1,5.429535E0,3.2244692E0,1.3254862E1,1.0383918E0,4.091181E0,4.0034857E0,7.4933195E0,5.3968887E0,2.8517323E0,8.123003E0,2.0183368E0,8.177314E0,7.6962013E0,1.1399878E1,7.893198E0,3.2798784E0,2.3167305E0,6.8152065E0,1.3105156E1,0E0,0E0,1.1820335E0,3.318192E0,4.321449E0,0E0,1.9183698E0,3.1433935E0,7.254895E0,4.0543785E0,0E0,0E0,1.2443314E0,7.817582E0,2.443039E0,1.1571898E0,6.6657968E0,5.286523E0,8.041779E0,7.2417827E0,4.9888763E0,6.572128E0,6.13126E0,3.312376E0,1.2626349E0,3.1137705E-2,2.3010921E0,1.9926656E0,8.133974E0,6.4713497E0,5.263317E0,1.010032E1,0E0,0E0,0E0,0E0,0E0,0E0,0E0,0E0,0E0,0E0,0E0,0E0,0E0,0E0,0E0,0E0,0E0,0E0,0E0,0E0,0E0,0E0,0E0,0E0,0E0,0E0,0E0,0E0,0E0,0E0,0E0,0E0,0E0,0E0,0E0,0E0,0E0,0E0,0E0,0E0,0E0,0E0,0E0,0E0,0E0,0E0,0E0,0E0,0E0,0E0,0E0,0E0,0E0,0E0],"parents":[2147483647,0,0,1,1,2,2,3,3,4,4,5,5,6,6,7,7,8,8,9,9,10,10,11,11,12,12,13,13,14,14,15,15,16,16,17,17,18,18,19,19,20,20,21,21,22,22,23,23,24,24,25,25,26,26,27,27,28,28,29,29,30,30,33,33,34,34,35,35,37,37,38,38,39,39,40,40,43,43,44,44,45,45,46,46,47,47,48,48,49,49,50,50,51,51,52,52,53,53,54,54,55,55,56,56,57,57,58,58,59,59,60,60,61,61,62,62],"right_children":[2,4,6,8,10,12,14,16,18,20,22,24,26,28,30,32,34,36,38,40,42,44,46,48,50,52,54,56,58,60,62,-1,-1,64,66,68,-1,70,72,74,76,-1,-1,78,80,82,84,86,88,90,92,94,96,98,100,102,104,106,108,110,112,114,116,-1,-1,-1,-1,-1,-1,-1,-1,-1,-1,-1,-1,-1,-1,-1,-1,-1,-1,-1,-1,-1,-1,-1,-1,-1,-1,-1,-1,-1,-1,-1,-1,-1,-1,-1,-1,-1,-1,-1,-1,-1,-1,-1,-1,-1,-1,-1,-1,-1,-1,-1,-1,-1,-1],"split_conditions":[-4.7763953E-1,-4.172816E-1,-1.6029854E-1,1.1557746E-2,3.0361465E-1,3.4760725E-1,-2.4050321E-2,-1.0083667E0,6.950418E-1,2.467331E0,1.0534514E0,-8.949352E-1,6.602865E-1,-1.1764286E0,-2.6826957E-1,-1.1683397E0,-9.9864763E-1,1.4612582E0,-7.8082323E-1,-2.3322442E-1,2.0801508E-1,-1.2428343E0,-1.3300325E0,-1.365026E-1,3.9376724E-1,3.5254702E-1,1.1038735E0,5.920138E-3,1.3657273E0,-8.761805E-1,-2.077811E-2,4.7709864E-2,-1.9634907E-1,-1.3637118E0,6.3831484E-1,-1.2695369E-1,2.4342473E-1,7.90292E-1,9.307279E-1,8.476076E-1,1.982739E0,2.9669744E-1,-8.702649E-2,3.3148584E-1,5.0319576E-1,-3.8404012E-1,5.1830715E-1,1.4731876E0,9.72332E-1,-9.721499E-1,2.562538E-1,1.6585859E0,9.58188E-1,-3.1236866E-1,1.796722E0,-1.0556124E0,-1.4557755E0,1.9183556E0,-7.411543E-1,-4.1248673E-1,-4.609311E-1,-1.0083667E0,1.3767993E0,6.765125E-3,3.400052E-1,2.6901042E-2,1.6032742E-1,-4.02408E-2,-1.9271415E-1,1.5036987E-1,-1.7493613E-1,2.5731018E-1,-8.4765695E-2,-7.727559E-2,8.894234E-2,-1.3158864E-1,1.092759E-1,-7.141072E-3,2.9213506E-1,-7.097965E-2,1.2425006E-1,-1.17980935E-1,3.352795E-1,-2.7947761E-2,-1.6668782E-1,3.6726877E-2,-2.1066281E-1,-1.5993732E-1,1.2443173E-1,1.3141777E-1,4.0554438E-2,3.4449454E-2,-3.4060907E-2,1.3002586E-1,-3.131833E-2,2.5011187E-3,1.7719163E-1,9.0155184E-2,2.0669822E-1,8.066609E-2,-1.8933024E-1,-1.744524E-1,9.961327E-2,2.7360815E-1,8.687498E-2,-1.4708856E-1,1.22665405E-1,2.4654366E-1,-1.3428514E-1,-7.844757E-2,1.271237E-1,2.2977337E-2,-9.510039E-2,-7.7726096E-2,1.084673E-1,-9.729761E-3,8.092714E-2],"split_indices":[10,8,13,4,18,41,13,38,4,38,13,38,40,7,4,37,34,42,16,26,12,17,3,48,15,5,0,21,11,0,13,0,0,12,3,28,0,4,34,24,29,0,0,14,15,23,18,20,4,35,34,48,15,0,40,2,6,48,45,39,25,38,32,0,0,0,0,0,0,0,0,0,0,0,0,0,0,0,0,0,0,0,0,0,0,0,0,0,0,0,0,0,0,0,0,0,0,0,0,0,0,0,0,0,0,0,0,0,0,0,0,0,0,0,0,0,0],"split_type":[0,0,0,0,0,0,0,0,0,0,0,0,0,0,0,0,0,0,0,0,0,0,0,0,0,0,0,0,0,0,0,0,0,0,0,0,0,0,0,0,0,0,0,0,0,0,0,0,0,0,0,0,0,0,0,0,0,0,0,0,0,0,0,0,0,0,0,0,0,0,0,0,0,0,0,0,0,0,0,0,0,0,0,0,0,0,0,0,0,0,0,0,0,0,0,0,0,0,0,0,0,0,0,0,0,0,0,0,0,0,0,0,0,0,0,0,0],"sum_hessian":[4.837273E3,8.4063257E2,3.9966404E3,1.9330371E2,6.4732886E2,2.266031E3,1.7306095E3,8.973685E1,1.0356687E2,5.228056E2,1.2452323E2,1.629087E3,6.369439E2,1.0698197E2,1.6236276E3,7.55404E0,8.21828E1,7.609202E1,2.7474852E1,5.160783E2,6.7272882E0,9.183251E1,3.269072E1,1.5441676E2,1.4746703E3,4.4691483E2,1.9002908E2,9.012701E0,9.796928E1,3.510723E2,1.2725553E3,1.5881088E0,5.9659314E0,7.433225E0,7.474958E1,7.372683E1,2.3651848E0,